function [Y,Xf,Af] = colourneuraltest(X,~,~)
%MYNEURALNETWORKFUNCTION neural network simulation function.
%
% Generated by Neural Network Toolbox function genFunction, 13-Apr-2015 18:01:07.
% 
% [Y] = myNeuralNetworkFunction(X,~,~) takes these arguments:
% 
%   X = 1xTS cell, 1 inputs over TS timsteps
%   Each X{1,ts} = 256xQ matrix, input #1 at timestep ts.
% 
% and returns:
%   Y = 1xTS cell of 1 outputs over TS timesteps.
%   Each Y{1,ts} = 8xQ matrix, output #1 at timestep ts.
% 
% where Q is number of samples (or series) and TS is the number of timesteps.

%#ok<*RPMT0>

  % ===== NEURAL NETWORK CONSTANTS =====
  
  % Input 1
  x1_step1_remove = [3 6 7 8 10 11 13 14 15 16 17 18 19 20 21 22 23 25 26 73 97 108 109 125 130 135 136 141 166 167 178 179 191 198 214 226 233];
  x1_step1_keep = [1 2 4 5 9 12 24 27 28 29 30 31 32 33 34 35 36 37 38 39 40 41 42 43 44 45 46 47 48 49 50 51 52 53 54 55 56 57 58 59 60 61 62 63 64 65 66 67 68 69 70 71 72 74 75 76 77 78 79 80 81 82 83 84 85 86 87 88 89 90 91 92 93 94 95 96 98 99 100 101 102 103 104 105 106 107 110 111 112 113 114 115 116 117 118 119 120 121 122 123 124 126 127 128 129 131 132 133 134 137 138 139 140 142 143 144 145 146 147 148 149 150 151 152 153 154 155 156 157 158 159 160 161 162 163 164 165 168 169 170 171 172 173 174 175 176 177 180 181 182 183 184 185 186 187 188 189 190 192 193 194 195 196 197 199 200 201 202 203 204 205 206 207 208 209 210 211 212 213 215 216 217 218 219 220 221 222 223 224 225 227 228 229 230 231 232 234 235 236 237 238 239 240 241 242 243 244 245 246 247 248 249 250 251 252 253 254 255 256];
  x1_step2_xoffset = [0;0;0;0;0;0;0;0;0;0;0;0;0;0;0;0;0;0;0;0;0;0;0;0;0;0;0;0;0;0;0;0;0;0;0;0;0;0;0;0;0;0;0;0;0;0;0;0;0;0;0;0;0;0;0;0;0;0;0;0;0;0;0;0;0;0;0;0;0;0;0;0;0;0;0;0;0;0;0;0;0;0;0;0;0;0;0;0;0;0;0;0;0;0;0;0;0;0;0;0;0;0;0;0;0;0;0;0;0;0;0;0;0;6;0;0;4;0;0;3;6;2;0;0;0;0;0;2;0;0;0;0;0;0;0;0;2;4;1;0;0;0;0;0;1;0;16;0;0;0;0;0;0;6;0;0;0;0;0;0;0;0;0;0;0;0;0;0;0;0;0;0;0;0;0;0;0;0;0;0;0;0;0;0;0;0;0;9;0;0;0;0;4;8;4;0;1;3;0;0;0;0;0;12;8;0;0;0;10;0;0;0;0;0;13;12;8;31;129808];
  x1_step2_gain = [1.60025604096655e-05;0.25;0.0625;0.25;0.25;0.25;0.00436681222707424;2;0.133333333333333;0.0377358490566038;1.60015361474702e-05;0.0625;0.0869565217391304;0.125;0.0714285714285714;0.0952380952380952;0.117647058823529;0.111111111111111;0.125;0.166666666666667;0.105263157894737;0.133333333333333;0.125;0.142857142857143;0.117647058823529;0.285714285714286;0.222222222222222;0.142857142857143;0.0625;1.60015361474702e-05;0.0625;0.25;0.142857142857143;0.133333333333333;0.25;0.285714285714286;0.105263157894737;0.285714285714286;0.25;0.166666666666667;0.153846153846154;0.25;0.285714285714286;0.166666666666667;0.25;0.2;0.2;0.333333333333333;0.285714285714286;2;0.153846153846154;0.222222222222222;0.25;1;0.142857142857143;0.4;1.60025604096655e-05;1;0.25;0.0625;0.25;0.5;0.285714285714286;0.25;0.4;0.222222222222222;0.25;0.0625;0.4;0.333333333333333;0.5;0.666666666666667;0.0833333333333333;0.333333333333333;0.25;0.25;0.0625;0.333333333333333;0.25;0.5;0.285714285714286;0.25;0.125;0.285714285714286;0.333333333333333;0.25;0.666666666666667;0.666666666666667;0.181818181818182;2;0.125;0.25;0.25;2;0.25;1;1;0.285714285714286;0.285714285714286;0.25;1;0.125;0.222222222222222;0.125;2;0.125;0.25;0.666666666666667;2;0.0625;0.25;0.222222222222222;0.125;1;0.03125;0.0227272727272727;0.0384615384615385;0.0357142857142857;0.125;0.153846153846154;0.0588235294117647;0.0285714285714286;1.60005120163845e-05;1.60025604096655e-05;0.25;0.666666666666667;0.25;0.142857142857143;0.25;0.5;0.125;0.25;1;0.25;0.25;0.25;0.142857142857143;0.166666666666667;0.0645161290322581;0.25;0.111111111111111;0.0833333333333333;0.2;0.285714285714286;0.133333333333333;0.125;0.00449438202247191;0.25;1;0.0625;0.285714285714286;0.25;0.333333333333333;0.2;0.25;0.125;0.125;0.125;0.125;0.0625;0.2;1;0.25;1;0.125;0.666666666666667;0.125;0.25;0.125;2;0.25;0.222222222222222;2;0.05;0.5;0.0833333333333333;0.25;0.25;0.125;0.125;0.125;0.25;0.0454545454545455;0.0625;0.25;0.05;1.60025604096655e-05;0.133333333333333;0.285714285714286;0.0625;0.25;0.125;0.0555555555555556;0.0833333333333333;0.0714285714285714;0.25;0.133333333333333;0.0689655172413793;0.153846153846154;0.0625;0.0416666666666667;0.25;0.2;0.5;0.25;0.0625;0.125;0.133333333333333;0.333333333333333;0.0625;0.0625;0.1;0.0416666666666667;0.111111111111111;0.181818181818182;0.0555555555555556;0.181818181818182;0.222222222222222;1.60025604096655e-05];
  x1_step2_ymin = -1;
  
  % Layer 1
  b1 = [1.4181591248089231;-1.269419517913442;1.1208072454701909;0.9718763189406987;0.82194241743816265;0.67269942905815305;0.5228356520453955;-0.37381607925926325;-0.22488498466957232;-0.074902728937878679;0.07638005922007142;0.2222221060553905;0.37377830036815568;0.52146201613797971;-0.67397850369226964;-0.82266472572157556;0.97137344762524735;1.1223952632745904;1.2697054183150356;1.4191770939512161];
  IW1_1 = [-0.004699651766193645 -0.15019951596933501 -0.069257364821626463 -0.047593858548783126 -0.11469407965419146 -0.08510907248759042 -0.080842095791436142 0.16139437453793354 0.11468058275267731 0.086205519550745902 0.019497612281862909 0.16100964268482496 0.067363375927930763 0.063683270521843457 -0.074470217613086781 -0.10373145924623281 0.14129265378870867 -0.051678613168944162 -0.13073526991960308 -0.15265082877893002 0.091569932613578611 -0.073927507853242203 -0.0025711933947123065 0.00046934921514126741 0.1019216814908238 -0.068337462573697952 0.086697899910099477 -0.16963781533720865 0.066213828606272687 0.12282520877705326 -0.0036871291807800202 -0.11870864571207719 0.034964437601746473 0.01577431270518526 -0.0045834452041887261 -0.16426608154309166 0.14840622055083608 -0.15423525524588402 -0.14151921319243249 0.1330990810907077 -0.025043820388913608 0.10947521586015573 -0.16784362844140008 -0.089426555181047071 0.033047286883135268 -0.089752681611758117 -0.14204444459985391 -0.009770903966362033 -0.10446324518685172 0.11769744546065421 0.16560273975072842 0.073808222477539778 -0.037980221483676677 0.093477495149739159 -0.054462355526535208 -0.13121622776954381 -0.010539746060158435 0.0078155230067149129 -0.13618625771251219 0.0002430044582498582 0.024793446683995413 0.038367517356607067 -0.10670332760474618 0.0018218647365982241 -0.044900613503351325 0.0060788125096583332 -0.16068563384250611 0.097897069580874421 -0.0025504076466416467 -0.1698742377848631 0.12704950375283966 0.11264468076638735 0.13627616717868948 -0.053177726053508401 0.022295358763311617 -0.041721431617408412 -0.059947106247271689 0.04680768798637934 -0.13051711615305986 0.029346849217980423 0.13791552765049336 0.14354591347353468 0.14825091318898828 -0.11577621164507294 -0.12017690895240753 0.12810003117404076 -0.022671754877347152 0.083468415754551634 -0.13942563022180351 0.051839497574096505 0.13821858053055036 -0.0086716623788913386 0.11347956852356129 0.023250402573062785 0.16576490559040907 0.071658468679901527 -0.11628750759912131 -0.038573863782694048 -0.096066925310143159 0.11494424909237569 0.0085364041954713397 -0.073963179569868698 0.042447617294226886 0.042197953671434418 -0.1321851672785396 0.015280480354958458 0.15974021721752182 -0.039788947574039599 0.061944154456462022 0.052934278868060861 -0.049864815100758048 0.11180947682928773 0.0048642450432344331 -0.10383464038688514 0.06298384514152236 -0.10207589276321193 0.12588922336203442 -0.13406650348346466 0.16243751951265148 -0.12587794776091854 0.081117853540291884 0.090580239675336502 -0.092463120930830089 0.082880727228363718 0.067071648911851481 0.023853323526387436 -0.16666816350345856 0.031167014781103296 -0.064931525769662879 -0.082630326078676306 -0.16374778175137403 0.081819573881184826 0.041952742145916808 0.058111761365777434 -0.07792345489358278 -0.039204257382779092 0.02867866736186326 -0.050803672199924793 0.03513825149841078 0.078824017603418492 -0.074110539137227302 -0.073275438378528651 -0.043806587389703083 -0.035703274512491057 -0.056283389695032979 -0.043205930657029455 -0.064394632551521155 0.045752831695251503 -0.14743422614094553 0.12890860652319858 -0.14528627622232945 0.091937473265659 -0.14588013905844943 0.10962401118826287 0.049683159915785868 -0.038955665689194209 0.042013396718003256 0.14925727919162893 0.051467850272010771 0.089075366149027918 -0.099543213107591552 0.069211211093731143 0.10940028546099741 -0.16837207774123611 -0.079115425059779393 0.02543075152344193 0.04397171133023868 -0.083932618252005015 -0.11808005944293463 0.036705656489939523 -0.12347703228337922 0.03917230044168752 0.072129108066986289 0.13837719281619845 -0.0064241232997011028 0.076308341034174568 -0.16164778331288107 0.056441487777841817 -0.15464026153744562 -0.14871467316066131 -0.11225169065687714 0.10470476314513781 0.13523064654174635 -0.031034854726300399 -0.084749476438370136 0.023270716049294645 -0.086355545158082553 -0.068565023525928789 -0.027257285236823803 -0.055267066695503922 -0.038777445002921379 -0.10356285535605321 0.13507712046755654 -0.074102936016034626 -0.045444329081550619 -0.11926136731134773 -0.082243908605197355 0.053888646610430975 -0.063487195405167507 0.080887971739756093 -0.10413422802664925 0.020405901134963631 0.012006565971409028 0.16496066692139275 0.032589542457340116 -0.082761573579850423 -0.12721899522787347 0.045166009379118022 -0.12950052034126583 0.090321985907176883 0.10239909095962574 0.10630487568936774 0.070203440425064767 0.030056584844750017 -0.16073038427635439 -0.027363011562084951 0.088938672156625889 0.16543417311790259 -0.10090508987785833;0.098647309432338667 -0.093289570833806401 -0.0020066309272484214 -0.10519818862351261 -0.029840077450664162 0.15436033335665464 0.036625554921773197 0.063104324772827347 -0.024027897941224455 -0.11372093251580601 -0.13423574045391912 -0.061775387776730521 -0.0065462059523424439 -0.1742982986330556 0.0093774566153514115 0.063797659582249061 -0.11814448329784431 -0.069816997153692023 0.043847173653550994 -0.13795077544549156 0.072142182262483784 -0.026360292305940107 0.077547933384175746 -0.057897019093586986 -0.031765025816437316 0.084275556023598375 -0.08216355750271187 -0.1471173494766537 0.099382660738061276 -0.02212344594498887 -0.078659118983741186 0.14471842162789289 -0.020609323415550725 -0.044980195500215571 -0.09911111066265757 -0.060909044567763346 0.089365542083001223 -0.073696296625905058 0.044722835578500854 0.0080487693799939797 -0.051757633410530177 0.13940518953844364 0.011528290800789386 -0.14963211800105483 -0.10994225547665869 -0.15587416288907111 -0.060621441538975397 -0.011250761747811436 -0.023087876702732685 0.033228668101139995 0.14093201733302071 -0.090351023738056035 -0.023689347415255003 -0.15410862851213722 -0.10438358787967415 -0.04401936987633713 -0.044977585652596061 0.16393380164743135 0.0095125967508789579 0.16004267986798107 -0.08607410689602378 0.12899324117475039 -0.13383298576201774 0.0096918952321787197 -0.065840291529881301 0.15055576557060338 0.09924127209725149 0.095149220015783437 -0.092326837640720485 -0.11019673229657295 0.1321851428104685 0.084360933811662028 0.15689603579974845 -0.098074029788419295 0.11693225169153716 0.073932343175622445 -0.0029539663063280429 -0.07079385123752753 -0.10185492178708898 -0.16372299394100398 -0.043926163022135679 0.024879864933016818 0.015649895071197781 0.040313641229262016 -0.0087844851567690473 -0.0099646757615301802 0.12764788325466686 -0.14095339989839728 0.1424682683273055 0.073431282163836598 -0.14697685152895953 -0.089188652890002384 0.027030082652683106 -0.11753710973178509 0.072509951329441102 -0.13176680498079621 0.016620256222787788 0.11663767678278253 0.0028387551509802848 -0.12972905608459098 -0.15302555890174094 0.15065342727379782 -0.10551839432173137 -0.1257069270143579 0.067505067086812851 -0.14056708953264796 -0.082811439553480526 -0.063146089962965404 -0.0061885169852630758 -0.00935010068365341 0.1060675070694668 -0.036293339549518501 0.052002718663345882 0.018793699049177048 0.047155200185483075 -0.12233921175387351 0.15563774752905055 0.076897025397034538 -0.077587481019165808 -0.0507359087291624 0.13506135115543882 0.032107502828932238 0.0292064840616202 -0.16462288064615363 0.13013365824930581 -0.05960129411275817 0.064601089148931562 -0.098599401194830141 -0.077962668688422443 0.064948627820108712 0.12769214027875048 -0.027535408522989514 0.13709123577116733 0.11711187813882448 0.09500192683298006 -0.094475685012884669 -0.072259296855198635 0.01354640419152657 0.04908347977260516 0.010889125432346089 -0.12684658722395581 -0.1544847399891191 -0.076600125624161366 -0.069236964460343511 -0.13792550643581045 -0.035117843457616232 -0.13606837175144368 0.14819435536941691 -0.12701248846129728 0.05419355225964035 -0.012648867136943888 0.033424188435664567 0.17581028989549044 -0.027651399860857667 -0.13371647316112995 -0.095589133944993673 -0.0049653862532440599 -0.069685867546642799 -0.0028121783203939395 -0.13994239244970411 -0.023883094060530827 0.14246982658131918 -0.096846869218864734 0.10949107952691592 0.0068284654647412834 0.057878512907835224 -0.0079403273809809209 -0.087022105169202446 0.015487040751604406 -0.16500930921212628 -0.0026167890379604343 -0.16940747156770555 0.089889660387425158 0.049539117975492521 0.17216773824998405 -0.057229497244511429 -0.14505544537864581 -0.16647786398698294 -0.11013072363812704 -0.044272623122887524 -0.052758548766241302 0.057964197830283309 -0.11216756563999548 0.088036586551462043 0.028927989936175465 -0.044774459055680157 0.015579945656830914 -0.049854018662662397 0.12892127696074848 0.049348016795874618 -0.15721155531414721 0.023219948012668856 0.077660173111615147 -0.14468224847537317 -0.035832749325918248 0.13178760966756686 -0.060094049252024363 0.12466426711165099 0.098141866254364829 0.1078651941816679 -0.11615388040727004 0.11474807065457719 0.091680492560833785 0.089209235730889777 0.066656840621326388 -0.089047477431942107 0.090324070195270889 0.04476731633454905 0.16447041097292134 -0.033219597259826157 0.12274899235267275 0.054315980929516165 0.11694066077470766 0.14929602897402786 -0.17157292313446962 -0.062152477477682933 -0.014879692899310615 0.04371325550479413 0.042015999408516455;-0.11446273815158654 0.022747266447037916 0.1382926749482967 -0.018529723856971908 0.11059186491631666 -0.064287460853348397 0.14388086509714179 -0.076712345922781297 -0.060350299029208888 0.088893764846063317 -0.063474519497455945 0.020521669600975508 -0.058576880718895059 -0.14460689049382655 0.109009765012148 -0.01412234063065923 0.094010522917206768 0.0091642346056811895 0.16382717502310798 0.10856913914955635 0.11268669359122133 -0.14105723239336102 0.16996693176388827 0.13318866066457866 -0.030590354271820937 -0.015526489413870533 0.085451298885569488 -0.058249159398773405 0.040903991243723833 -0.08391623694615051 -0.064637222370144173 0.012293207010775438 0.0032459111696048083 0.054345654646321212 -0.011696082196479272 0.06318176055304503 -0.063104960857164022 -0.0062946370230885637 0.15326793171764683 -0.0093817943938677879 -0.10377223052066406 0.065596252488629062 -0.0015483995781625101 0.02034575340410159 -0.016951152009398358 -0.0038946212734819134 -0.044548836244819069 -0.050851139080549314 0.027478719234927906 -0.11958581417081661 0.059601982613137094 -0.053286581714174525 0.072496626763182442 -0.07678157829537037 0.14439458139811689 -0.15508335732497178 -0.15599640400039813 -0.032075117522385808 0.049380821783540835 -0.014900563639772855 0.16971837620832975 0.031743188272367627 0.0076605626544021185 0.14734575726124488 -0.13455919838993247 -0.066986875317115085 0.12491351587998069 0.042798596113999249 0.019607174823041383 -0.10203022795065067 -0.14323734849567213 -0.15961209537105053 0.15335633914343319 -0.023656505430512523 0.007492647643874745 0.063142516295590118 -0.077452680101015317 -0.14214984488455742 0.069725292928627544 -0.11355469399362421 0.065448323463083602 0.068489596193467339 -0.10173658260100074 0.15394915587859406 -0.0092135878613635591 -0.042617105962765391 0.041499815383965272 0.11637207701682478 -0.02997200249099706 0.11356223330726592 0.15942403047975232 0.16843246911311602 -0.033688168969679015 0.13571001712934924 -0.1249291839043469 0.13148679667185209 0.071300168907940151 -0.09824119946893449 0.052841297353244769 0.069683357428932988 0.079009625424445701 -0.030302310762172244 -9.4541603769456592e-06 0.11735909983644759 0.11981560128159574 -0.11237876922952947 -0.10894586250523884 -0.16232921441102857 -0.011513266123418514 0.085478646385717755 -0.16663123141597083 0.091951586649469896 0.028140529618329312 -0.062419319606024828 0.017838997397715228 0.15825405352453725 0.1089627198121748 0.055499157654995815 0.13511939323138653 0.063842460512892121 -0.083809445506697847 0.021556136437605487 0.063536545328900532 -0.1108770234189244 -0.053089077332519309 0.15038943475056277 -0.15525132677458686 0.022915593009141425 0.030909379805029339 0.13194588911633201 0.14402641552379472 -0.13373183940690847 -0.10486994977089464 -0.059266423121986114 0.09259381770985313 -0.085824390915503104 0.010750504439522074 -0.13696083593205755 0.04472705576005246 0.12740126860432271 -0.14867166030312906 0.11501421432998457 0.042326371492972165 -0.10404611985710019 0.1383659781516674 -0.085577005391339084 -0.037635585392377366 -0.12946022639213414 -0.041920050781138397 -0.062497025970197934 -0.090804871412783969 -0.03084894595427342 -0.026390127813413686 -0.099689253288764823 0.049057947806588571 -0.047293997539808855 0.17049217223105448 0.036925700907497444 0.13397518439673411 0.020205974157579732 -0.042358250462643243 -0.14138991616005062 0.074871216808540864 -0.072752401835559213 0.13272796791411898 0.00014762255179018752 0.16746167320933228 -0.078959605917347686 -0.067739876753963021 0.077783921070149739 -0.086769567235930226 -0.024400208370939796 -0.10214756279402656 -0.040432041981571562 0.1098169928245628 0.14682057639031831 0.050031098953236569 0.081608735701482069 0.13935045576757515 0.17127443912956 0.026003828330432775 -0.015243010446905413 -0.11626245161445591 -0.035280359910412472 -0.036919258442384237 -0.14356701493581009 0.1173202768893422 0.0030538389655250303 -0.065448705025095033 -0.079846774666949491 0.12639457082806363 -0.026238178847258025 0.078765239451101213 -0.12065225608205483 0.055112941947754464 -0.10547856697027605 -0.16886533071505053 -0.13046440512420335 0.0017332827171006098 0.08481716621024539 -0.13903195080207795 -0.13493344257228262 -0.027612751209751572 0.12516609236794496 -0.10868046889923139 -0.099729118851610205 -0.096737302917216966 0.091544931237789104 0.035759396944328163 -0.083681999428068726 0.019043164915600749 -0.14274604885034015 0.025675249148534415 0.10066440623717174 -0.14252477372942332 0.16879903303543922 -0.031754968107117053 -0.046539333925418799 -0.1573443034697633;-0.012743131668355629 -0.081397439550130193 -0.073537514444951699 -0.1432429673733169 0.0015772502969020261 0.089581449583058928 -0.099056146557253907 -0.059653490945058979 -0.10427334608788677 0.010612737085211653 0.058160855476042016 0.15670387827408019 0.10773580713645867 0.15412875565888545 -0.083610516710847932 -0.017085628888782581 0.080200871946448093 0.080297771915499597 -0.14548006805062572 -0.016449934995235484 0.077269857810043655 -0.0033072246391280709 0.15678128555888834 -0.024229321126744911 0.058894638664620663 0.136619829319784 -0.0042088508369200603 -0.13552883377295355 0.025093976060745857 0.08993772191703181 -0.037284981258770986 0.10989727469668469 0.045018231331015748 0.16359156231970712 -0.038767994381942818 0.033828946926126716 0.092902592520142657 -0.10356404517446013 -0.11055227429464459 0.056289663483585647 0.080341378913089248 0.019957541997050569 -0.090077011650191344 0.1119539176271222 0.13510637907596112 -0.029839616443112248 -0.10196494359672814 0.15484313029725003 0.087776349030578404 -0.13350390294831715 -0.11804800108305413 -0.10537438517511746 -0.065842881455995123 -0.16164450859566823 -0.00059822480070779419 0.013147335788542734 -0.086064237970609581 -0.0035318464525536802 -0.060832668969986417 -0.12539729676588796 0.027514301655244922 0.0090023941702729992 0.11896253931366048 -0.084341551843384488 -0.059297097609443954 -0.074517258975420275 0.11417121023096043 -0.046403623624025225 -0.12712501262931264 0.057586188356459289 -0.028835805507717069 0.093179252630578122 0.0083593287547828569 -0.030878373387998655 -0.16587658327526111 -0.13719013505036343 0.1013502574183912 -0.016443864193420865 -0.049237455902324492 0.097746342894190943 0.090293951160497987 0.032019751402074255 -0.15541520967100658 -0.011334655516926466 -0.026285739167076667 0.15869476658906609 -0.1105125972648449 0.066608788968225835 -0.034473070785536963 0.011143160649716252 0.040675634022101198 0.14739401631699461 0.056470124065511343 -0.039392011891035528 -0.027618699095165813 0.15811031037533582 0.10159464664347562 -0.1058493405185673 0.1507297760255957 0.029158505736930098 0.097535885629851979 -0.16283108150859632 0.0079789013579192689 -0.028128235873881625 0.16720580530003215 0.12087161704797862 0.089138262904694163 0.045514680046809038 0.13976628948066361 -0.12533114879095367 -0.074308700211854734 -0.1434165820161655 -0.067220260739349696 -0.054534505672611103 -0.044053286511769298 -0.10056780383400014 -0.019088056906670637 -0.0027352369990378111 -0.090975594453068895 -0.037012079974038728 0.14336695745631264 0.068210194305376864 0.052906253803728209 -0.1049056566955118 0.071036877029043224 -0.13662956894851841 -0.081738767840819709 -0.0056402219369398338 -0.037090219417784433 0.14817708610439653 0.12711725971335877 0.10956895541978824 -0.12819189432266162 0.018102338053015997 0.033595317543727292 -0.10107307207754829 0.13092725549925491 -0.12082880483167077 0.072408791773816955 -0.10119314504330436 -0.12407767124160421 0.11088831473616867 0.12648863653995812 -0.07389685843744663 0.1469325927074778 0.14445971186845996 -0.14832784153870027 -0.12883773923488082 -0.1322791142533643 -0.12006259435069062 -0.02308792967581736 0.13215320312583603 0.05688164405425588 -0.16754743876938169 -0.096628729468405603 0.078268507153193834 0.11827106408761744 0.011342865240785932 0.1487619039260871 -0.16067276120851964 0.071230032724409531 -0.070005644867582401 -0.035510879884307282 0.017842900009598969 0.080395623965358459 -0.13505861381611969 0.037231082638040744 0.086288467445314709 0.10639469578535041 -0.043253243873573155 -0.13627789048419475 -0.13755549755846799 -0.14095166164905387 0.10394442784708295 -0.081065173155408093 -0.029264626199842637 -0.11429128373656894 0.01191941433744466 -0.094160288082527216 0.1497642749162594 -0.028320822767813676 -0.10512008614767095 0.05763970156709388 0.12267235616029748 -0.060747987664136381 0.035101153573092556 0.025006254185155216 -0.067956989891676242 -0.11410160412917966 -0.10777147590899284 0.055140117734541513 -0.059306834826304555 0.092924460335084835 0.14728868667556316 -0.12416725148938812 -0.15355713435969687 -0.042035824568816368 0.14249551357219301 0.0023320645143312148 -0.12387077058973016 0.12733907090172875 0.090343713716815821 -0.04404923191896222 -0.013780847804783676 -0.15942699549842371 0.099987949091363479 0.060623368171797427 0.042256685017895722 0.11379118297402366 0.042843449015559837 -0.15818962482636129 0.14213789525112591 0.033478685411497636 0.037766092138315971 -0.01128512660058122 0.019911914125756037 0.0065457772517777775 0.012381263154287255 0.14191416518836944;-0.0083823654322550661 0.11752840218181336 -0.010752829184306712 -0.097669999109290015 -0.14809356755128891 -0.044606637651262195 -0.065958542284444199 0.09339095757713875 0.095450354794913164 -0.13343865764244528 0.14200885033099209 -0.017955834216483387 -0.11416560105359577 -0.044925036637186902 0.13886324479038395 -0.015619959138275305 -0.014856824778118645 0.054056790594555308 0.09854183659473284 0.011312692502704435 0.080157644158054611 -0.1059088624630472 0.1119488641886765 0.041555657933530381 -0.12261971901826589 -0.15854814113317811 -0.06856016032649595 -0.11140760129427901 -0.14145252935669528 0.027592237683019254 -0.15248876804292749 -0.097855389675796198 -0.12182866434088326 0.04705307506609141 -0.14418290617167706 0.14535881139099913 -0.099641317072664659 0.047932325407597579 0.058337118240155111 -0.088712591101215099 -0.020458048016348148 -0.13922766863340016 -0.028986277374385507 0.12600632185015234 0.0036916866724924276 0.14551813549803161 0.14994488670474451 -0.086219907425064121 0.094020301865851391 -0.016407751742173227 -0.075277673834260012 0.049410408682824133 -0.067228919605270332 0.043820469000701787 0.14945184566022246 0.09216100879675504 -0.099610929923599781 -0.050668306085755503 -0.077095891546989107 0.12478173720617262 0.044247513328851476 0.14145885387388624 0.066759675197178653 0.016367788005671086 -0.1403991769456604 -0.09139881810137003 0.14096737899169667 0.099485191345737398 -0.029494481237712492 0.0058832903767921186 0.020869243199574981 0.068383340546859628 0.12005589164991572 -0.10545059648140757 0.017450090615640686 -0.15775934679127895 0.15233270471453345 0.10889809867026383 -0.10385957672702326 -0.098984149010102884 -0.084997476443237449 -0.12684325834306842 -0.010431032556589497 0.16204581521436251 -0.12972679782822089 0.046878696892382984 0.020097760627012365 0.020195118307242028 0.067044217070982404 0.13563355638678223 -0.064305640046307996 -0.059154692467891082 0.075774602119536127 -0.12577408869469392 0.1037094903380337 -0.1009469372059521 -0.010053170728351352 -0.097268815506183964 -0.012080013043769978 -0.0068861251570493135 -0.13814264493075221 -0.11502713922185537 -0.14017448948331587 -0.096233944488246168 -0.013473126431917479 0.007369838064720676 -0.13380952687431585 -0.074668758923983392 0.052053618174747858 0.02309129766423421 -0.043089229071538275 -0.0059743075145081278 -0.11441865053665495 -0.064884934420389867 0.083237215376743084 -0.048732717651648841 0.095276751965233081 -0.038704273166424538 -0.10609486922306238 0.00049353709096164604 -0.10793490898864463 -0.081853902550044211 0.014373106401990587 -0.063108879874445495 -0.13343273595806521 -0.14475563711719258 0.032727288238155419 -0.034114507097553114 0.13041246805864254 -0.096431778361232512 -0.030406532459810523 0.13049933422107013 -0.16004669982322345 -0.031853766065969624 -0.15652576152889197 -0.14171807528599123 -0.092244257438352531 0.10097443632156908 0.15681122440688827 0.15751116767839998 -0.15130109554776566 0.0047808863376574496 -0.062409387283424232 0.11724398526028527 0.080727273113037859 -0.15792580090830674 0.11711750948635602 0.12034879008232732 -0.072772122819989501 -0.01582959064532382 -0.024828660548008887 -0.056742324314135215 -0.1514396636817274 0.015793539499431599 0.058544915025581616 -0.028508304805883081 0.11406307122885002 0.08630621880744975 -0.05094506904300445 0.1165266566182127 0.029848081744942589 0.099838433390437686 0.1453239984588911 -0.080331802676752162 0.003246893261488124 0.079572038913784629 0.072414884172547239 0.071340907151288144 0.085523322365364696 -0.13202178755567268 -0.10275723925648458 -0.035377498640386598 -0.143199652443145 0.12123434937566442 -0.005317050435366409 -0.076199971480393508 -0.15545939371306838 0.013010200555269939 0.13061547771180892 -0.0037347313388754817 0.04302036515089927 -0.054461227137156704 -0.023218766253489898 -0.052872586605871533 -0.13592218097754499 -0.089470814019982498 -0.10743355509864998 0.097876360445887975 -0.15105481721880476 0.015171537022374081 0.0032678807425212441 0.096084277667959295 0.15959205709062341 -0.13847320006157018 0.035460877208229241 -0.072929590317832166 0.04053790388733803 -0.065325470268810526 0.11183839877789915 -0.15186634577658178 0.08726396637876821 -0.15420564440685222 0.088743538144795867 0.14911781616892855 -0.15786814685688796 -0.075653012243625056 -0.0026640729393638553 0.10614392134023821 -0.0036046004228180977 0.13646853760881256 0.12897223270405989 0.0093638189879928051 -0.066309723846008764 -0.062706295090831449 0.082368972413839406 -0.043681542607228251 -0.1298388733671228 -0.11749156344031687 0.081728647820457856;-0.15161377326071149 0.10960822431116651 0.030973843128135819 -0.12061952822528195 0.028606710380687215 0.028071655270260579 -0.073912945459878379 -0.12795544317289365 0.14756813474228933 0.081176149973306688 0.13583107777399259 0.10885091689639033 0.13123874924961568 0.11482342266703542 0.15601164797738129 0.00518728557032934 0.12103681782209932 0.14631757980532276 0.00012136301368758046 -0.11129253838050063 -0.088149928551800108 -0.046967466257319443 0.074179604085091194 -0.062065581625404855 0.047138161155005791 0.082201991966771762 0.13847421132672247 0.062378335344831504 0.0060946956413034424 0.12820478502265845 0.11836407490452272 -0.083563309032367333 -0.10898750514262918 0.034761302456308145 0.11735075649617849 0.005317749089512545 0.019541289597073314 -0.06216458924468421 0.08932923961461825 0.082804892477638156 -0.11418678015315697 0.064908950411806166 0.034616662354256991 -0.08686391462709396 -0.013214875910605025 0.15779640833610747 0.13190806833574456 0.12325165488917732 -0.10543763247837926 -0.13837564087296109 -0.13664813787149893 0.055961337273058499 -0.0060428192384583898 -0.11210421883871022 -0.12319660634041894 0.023499450353959818 -0.11073892987685301 0.0010146553114630751 -0.028510425365420478 -0.052594928102650935 0.076754139420396453 0.14853702316324277 0.04811794021525341 0.13708006616882321 -0.03311231458638679 -0.12517255776249572 0.14456541612598606 -0.010527181513793714 0.052275527051272613 -0.097558829349668919 0.11288063917926713 0.11469459038853269 -0.10610882997440924 0.026514314406958946 0.027899919362054063 0.074965229633212754 0.0010972886488575277 -0.1582641993305067 0.082333750671983633 -0.15632786216490935 0.017934226659440188 -0.126314902335912 0.034450434757319584 -0.12683835374858954 -0.10142254930246315 0.150406354513897 0.11508692356206342 -0.024191146284104507 -0.14700620052468363 0.098608312848393803 -0.11233322563718708 0.1115983904383378 -0.15390436853604164 0.1069736153865701 -0.06050430705635481 0.099197245781369944 -0.034489120784462535 -0.0088448785851974049 0.12328454534289039 0.090161787177392441 -0.13018759892901099 0.076291930447387538 -0.099447449538680108 -0.092030001447712576 -0.069311889824075087 -0.15775353977519982 0.10738129076181127 -0.12524516394184379 -0.004412242440288058 -0.1557292371607957 -0.1306883165717907 0.064435498241445621 -0.12141229176873292 -0.14632883340125141 0.12131784306952184 0.033124773235948139 0.073895202514201744 -0.13730230548675132 0.04867162666219544 -0.030078327639276873 0.0018949035268589435 0.057344152730748284 -0.026756471446928751 0.038550734111928379 0.097685561312795793 0.008160242058961556 -0.083840275652808646 -0.018337747568096936 -0.079208581978683509 -0.096915169093047454 -0.006300652809426965 0.040379685667977554 0.017141549442449132 0.084561147000233081 -0.053292953161997884 -0.025833006646591876 0.06536667828999336 0.092052967120433607 -0.068454889599695631 0.15150597099970783 0.14217956100883972 0.10109854192224325 -0.0005460403072772667 0.15640610625379583 0.07982601466735284 -0.079281799727010535 -0.0051833516591697406 0.11960536997323727 0.0362472575969204 0.14173795330170019 0.05039819038240359 0.10459116324783428 -0.15920059727727154 0.061085214403889893 0.029092018886778318 0.028876852971940509 -0.15683372329590264 0.13344052090016226 -0.076227750788679688 -0.12366321130353103 0.11990034993349322 0.022514691863112283 -0.021043736803266818 0.049824587183732283 -0.14884008151290493 0.019539132099786614 -0.15543031287356393 -0.064488516609235574 -0.040179911229178529 -0.049168248382469054 -0.12522136657661109 0.12640574359106044 0.12580077075747656 0.10076953007416528 -0.13895468596512395 0.053715633484367191 0.042868146934234443 0.1310876040794855 -0.063386452773294424 -0.13041463408347018 -0.067238534103802511 -0.10278010375320024 -0.082181846106912079 -0.099503697948470096 0.099327858389046869 -0.15314897947718367 -0.055471455694889739 -0.073289329740579848 0.15809610145757907 0.055207399200161357 0.11295086896590124 -0.14095825844812807 -0.017173116726945836 -0.14057864900344783 0.071768429718151242 0.058651517408628909 0.051485707828446407 -0.020277743234297908 -0.035326614468162418 0.0014163518349706444 -0.076916531612602868 -0.094199777289981079 0.15879037269363078 0.036091667348014125 -0.14491412650792701 -0.027160015818679509 0.034764549004838878 0.074203786667765448 0.15045017387784138 -0.031302755349037002 -0.0050415128762986055 -0.053239312804451648 0.08173488359072463 0.11955600324461933 -0.0018496922646719523 -0.15174504558464913 -0.12529975102356256 0.10365918286229314 0.038571340133517283;-0.046700420517984294 0.017361036418010331 0.028561325043709805 -0.020446655915216602 -0.041582693210493932 -0.090476754716064658 0.020210405182081226 0.11600808098188649 -0.027346304333049565 0.041941296186681423 -0.089484789359461081 0.085752357612319807 0.11735497362510255 0.013023308161463238 0.14675007236776641 0.080196402241602002 0.14620953136395412 -0.14250950268862453 0.0073897793647564438 -0.10083098716940726 0.13241896644071144 -0.13041063811720791 -0.11025178086772065 -0.014850754641304397 -0.14165286937971358 0.026446939948382549 0.052108107975747789 -0.010642529719265647 -0.043812335403584736 0.13433561687255616 0.070417074075233399 -0.11382549005579029 -0.11864616015801942 -0.15693059326107167 -0.13243900372979228 -0.1518887541655678 0.11535605575415779 0.11020151105994241 0.026125410646136767 0.085383667011223296 0.15281893001591063 -0.071212727464250836 -0.068126172041666433 -0.11180990752770066 -0.11393883287432499 -0.11176193875899423 -0.044411053222492086 0.059333047704074764 0.14729260438926395 0.042031655899022642 0.026197797965813299 -0.094491986565377564 -0.14048644381711886 -0.11949681493168755 -0.14462161515601787 0.038652221271525726 0.083920547257495343 0.063680318821937004 0.041298384777632896 0.050046945487221314 -0.048404007882005398 -0.056626991103725224 -0.015316308990460435 -0.1508755182592115 -0.075782047238149616 -0.085200907209379492 0.065197123201579971 -0.094898737061437088 0.14959033205447131 0.13906608442401486 0.065945636810071137 0.14067699880990453 0.14314626723319546 -0.042781620796856074 -0.0035633333052820237 0.0050116409933593032 0.074511799321203928 0.092268670903761826 0.13153720535176583 0.12714483108084931 0.093092441390784028 -0.11459411931113425 0.018135949284440633 0.15351678320889489 0.099906369663681091 0.13244572475488253 -0.13159125797710486 0.016613012591822462 0.070748333804453362 -0.084384763548897568 0.10020306194695686 -0.10380687600816642 0.11040324155330804 -0.062339571147638946 0.04271930865505652 0.013973969821179164 0.097152667880301996 -0.06253200413423303 0.13081371597691038 -0.016451308443711721 0.10630751237180439 0.11303484313783854 0.092773935196664506 -0.087150291512298597 -0.045139639842803427 0.10992784545035374 0.083025352069480057 0.099028940484924374 -0.12420701827908719 -0.058502816520726988 -0.09330532129452844 -0.055171826146632783 -0.054198038764462504 0.14657234971855146 0.11185806840799799 -0.086953929269265567 -0.11133289791910109 0.15282778276677586 0.14440819560976983 -0.14153131140789488 -0.15276676383572962 -0.10679310961934407 0.080597282528938385 -0.080297816461317728 0.028195062146822467 -0.13304495744099762 -0.11270903538654059 0.077637925504037905 0.092045886463235638 -0.094887463445002831 0.043008857517924805 -0.092421299009841543 0.11340487679980266 -0.075634976203151891 0.11422676386120867 0.085414176519150564 0.1009011390148513 -0.08898917842274269 -0.0690369436479642 0.054407039492565076 -0.069816545966675844 0.063152060935570686 0.054145546824583612 0.098581358938528568 0.15527765379209146 0.10565568295276002 -0.11397397510683024 -0.0075101410112118992 0.10866073067732945 -0.14838921358928814 0.14980736179207274 0.094634721877740718 0.01798351634078527 -0.13253118165696687 -0.006362543960467211 -0.11253127151701453 0.036538603221278818 0.027202570577191568 -0.034752303862218011 0.14666519522443708 -0.13324830375881469 0.031382491098008801 -0.11906981612963292 0.080706513714461775 0.022952110249815062 -0.044370723685798974 0.075877465320956738 0.045633499588669565 -0.052337449243875539 0.086476722098251843 0.12028834603878442 -0.1382329302808267 0.12043738967682972 -0.15107866076797039 0.097289622186634811 -0.053427221594893722 0.11405518237138487 -0.054582731023889837 0.010328250598340015 -0.0058178758243692084 -0.070089037331700355 0.1131734721209022 0.0020773838675373683 -0.11667054630201198 -0.071258934452097369 -0.045583030583525065 -0.065767863012613975 0.0923430984182083 0.068176108948852857 -0.12043059560884938 0.1525015768022924 0.043561915354898936 -0.070969413991932989 0.15456015220123451 -0.089811273785845941 -0.12747492709027833 0.033805202465904051 0.034927149491185215 0.1378628141405471 -0.12262048977684814 0.057351747818508124 0.070529983191499099 0.14996894990937237 -0.032188660955054973 0.019379741795470924 -0.037039825559206797 -0.022486794922542169 0.15615103488709312 -0.03614054205123142 0.15394191186861592 0.11879246421595882 0.016059766260796055 -0.12943939127999893 -0.047157703644340826 -0.053321439590720832 0.11683746743707718 0.038711976908175905 -0.15446287573179271 0.12475016467270564;0.12204048915423189 -0.09093823914750139 0.078770450877031536 0.044978801416234213 -0.024939109509882006 -0.16638109685082084 -0.062105993612219822 -0.027674694061275269 -0.10579469241060736 -0.107362547623416 0.1345159923181754 -0.097450871677968606 0.10300957915990745 0.13647478598345608 -0.00775322789380831 0.17224733156707275 0.068879632009304817 -0.083509755212425305 0.03695120363945812 -0.16308010663207478 0.042529800485406187 0.067883973684119109 -0.10849877110722909 -0.051148970919093519 -0.0021409492237065967 -0.00056514814162207227 -0.001989040465809788 -0.046489014086134067 -0.073442974474222295 0.10848918844216018 0.016006233141645093 -0.11816790879799319 0.077638289078467509 0.070927858955515552 0.089265763566668863 0.10072680788997719 0.13364044911698217 -0.14906142016542848 -0.056443104315601463 0.17246804668118171 -0.026133191571002256 0.16258827922620245 -0.066867232393128362 -0.087775510307965307 0.020419820067556726 0.019189103385098827 0.11432118059552684 0.063283957986312867 0.081523719056388722 -0.15322778533148626 -0.1617372847443618 0.13673241734869132 -0.17333298909854783 -0.0860729779030215 0.00014457845784044207 0.024252548000187429 0.1129407168575674 -0.0041715790350065219 0.044414580531589191 0.0050641023652466229 0.12751451568642302 0.15987866088962266 -0.10808823629941459 -0.022910595322918295 -0.046150058236462121 -0.10852965245658719 0.14489028485643776 -0.1620867576410065 0.042664429320179324 0.050782593890223757 -0.024668861103374351 0.036020145047798532 0.17188477220378143 -0.079089945623757776 0.069724873540657942 -0.12522139274601227 -0.046671870595305594 0.072386868769831678 0.038420187558492573 0.053588455813143906 -0.14526795153318767 0.0060322095569886706 -0.004449425930403322 -0.0018873915975353727 0.011613557114710597 -0.1049209270406383 -0.027455887426804746 -0.054136945744397133 0.15856182217778164 0.11312800210843539 0.056125846578413359 0.16043944647992733 0.050547130138097439 -0.079396820461392084 -0.042021032206187595 -0.0099336712457642872 0.07905424389299838 -0.015459043123696194 -0.11754412349156051 -0.070788712413334912 -0.035291901280386541 -0.05281450424558419 0.12164527969948165 0.15765398263386374 -0.12125713485531697 0.040147408977746643 -0.06405237818219979 0.010006276527631322 -0.13304772519728211 0.081210511468142191 -0.0052696973258824905 0.1270646983601178 0.07972340625127089 0.092816510922843543 0.078519303344630392 -0.086109374424835489 -0.027981715856330785 0.073536289469663577 0.13720207060650919 0.16593323958214179 -0.045569850642114045 -0.12965941011604648 0.11835109612572997 -0.065786372015478572 -0.011758103790599644 0.0030632496473618227 0.13299470897467397 0.14343603576959904 0.16285202032714391 0.025128250855249314 0.025626387405012403 0.030823348861387618 -0.088790907435979699 -0.066121313683494221 0.048220672203598491 -0.011659968469300929 -0.0007380610989893531 -0.054034682061270441 -0.061398670483738239 0.13639095080718275 -0.099796319648727871 0.064925751032072501 -0.11356562768990112 0.032935244245371857 0.061444787085015537 -0.022007980961909035 -0.064190240227671905 -0.066650061824182497 0.055118603963197531 0.011452324582452831 -0.047057327734502059 0.14567808354560891 0.04708680271521587 0.069004169257673442 -0.1180136978149966 0.10717760026757174 -0.12146337909748613 -0.080981518144380427 -0.090692321449642482 -0.12145866223370946 -0.1680107377155011 -0.022113311860926816 -0.052645998460189608 0.14454747228506948 -0.10551451150810227 0.013821538844328686 0.15619115403084044 0.028915258086673064 0.15441227972968563 -0.13879129031083826 -0.14326524327555148 -0.14113812255499378 -0.087448397388627808 0.13651003062463271 -0.15453914254789961 0.16055587449971723 0.13593712425091325 -0.043026105391686782 0.0048899910103072661 -0.056844949407096161 0.026004360774867629 0.16289062121974388 -0.14765190153305105 0.1103942342269895 -0.13503669728380319 0.088011306182988178 0.15192455558542406 -0.024683633944736404 -0.13702988562781182 0.14712622044524948 0.037515592954345124 0.16623671151035629 -0.065124489244699837 -0.10662749084702622 -0.14237120659968033 -0.047277349635825743 0.11053908625487412 -0.086342904367552167 0.030048569475993814 -0.085273625527875485 0.020805656606526841 0.037619697026077696 0.087709219669788702 -0.048037852618867991 -0.018503662900765903 0.016241112814240177 -0.079973442135558848 0.13161758731058054 0.094453256731281826 0.049104452397902551 0.10584231573639546 -0.088490946716320018 -0.11702145051914588 -0.10371319905460254 -0.023657410897927788 0.060898661660610198 -0.11543949280744836 0.11483310276165579 -0.12610425327715571;0.093793292961695252 -0.14399406994314531 0.14925872135483545 -0.0057942509570529056 0.032725144687245321 0.071837372121903262 -0.028318302133784473 -0.0459457674384251 -0.0094054087448921138 -0.085205996762808031 -0.075561711531783357 -0.10425616960959923 -0.12077549494583252 0.038046879347116591 -0.091774222616691464 0.012421693386765744 0.066016415373804496 -0.024321316838909542 0.10530814999843015 -0.10286279868386536 0.12982229076732091 -0.037847473475167773 0.018944047530646959 0.073985723855778451 0.048909362041875619 -0.087605823225028023 -0.024267583301343022 0.071433240590493441 -0.084172367108924534 -0.1456391057736138 0.016499602527802644 -0.055015818836210421 0.064815693882852299 -0.0056017642104049031 -0.094302705545201274 -0.1565155802238121 0.02994096134868127 0.096526336384983868 -0.029350545414111452 -0.1568222746195139 0.15534613623416976 0.041194676268409752 0.00474943200036593 0.12364282020894315 0.058206967857415033 0.04187685764994227 0.073468989259165882 -0.083002221757698086 0.063680101521479834 0.13922591658470376 0.1545589972518196 -0.14930864404795927 0.15872654509268172 0.098571535561579687 0.14216901706518481 0.021989500441878383 -0.065749777542612728 0.040425514112882893 -0.040317359220927419 0.066651753767971944 0.14576490670547912 -0.085338965976663614 0.15464289751862484 0.15826526701896526 -0.088190912681196026 0.14819015699608215 -0.15736795714132912 -0.0080015737272660249 0.10889595491060312 -0.15022045937266407 -0.11658118549904209 0.11154857110521067 0.063256992799331141 -0.14794378213077863 0.056601292570481916 0.078961554298533007 0.1269461729597865 0.13743448486561591 0.077758389219241983 -0.15749554923958239 0.14640835686556117 0.14240686609074291 -0.016110688603112624 0.082574356596262707 0.030328590732227313 0.01436547529988812 0.13798111558065163 0.096836358975862014 -0.11478658934003438 -0.11570758880339914 0.10299549134672864 -0.045928459644702387 0.0099114760719414725 -0.073457844559493196 0.097317582268791447 -0.15548954061539402 -0.036416841854787142 -0.054645419179488036 -0.074990745090532579 0.1160156205281706 -0.096861130958057054 0.093009179131405356 -0.1587694094723221 0.093922752271783691 0.0079092613589523651 -0.022399923619075859 -0.10338985195725792 -0.13153412750898238 -0.0090114670335648371 -0.039270019705024493 0.042075081654095479 -0.10706966535665956 -0.0020515044809494929 0.12141869908332423 0.0049707054634559964 0.087574524614512261 0.056633383303266512 -0.11436017425399406 0.11485527413284587 -0.017119075277580709 0.15555930858834441 -0.14235435114551293 -0.12647833088963764 -0.15297228318445308 -0.1529459955505964 -0.12308384723213402 -0.032583488011729084 -0.014591444425759468 -0.017743857397702664 -0.034618704201158021 0.010783986096852155 0.078243665160541376 -0.1193664479547942 -0.097344269838763459 -0.066252811946066983 0.12473336237444184 -0.087971581690392389 0.14920844955873078 -0.032448313098721815 0.10131477009160735 -0.05570380371966651 0.028284849226981428 -0.10625053982521974 0.022284204991817828 0.09308163845672425 -0.01264513794843403 0.085159081113646701 0.1303768462608558 -0.14937071561529711 -0.12691284778314507 0.028849722557591342 -0.12859438991686356 0.030940075957756837 -0.1265411550134459 -0.045044313385896373 0.082462035836719905 -0.040531645477115331 -0.0074298569463443938 -0.018152769206717524 -0.15914122753259002 0.13738653692953517 -0.06929261889145881 -0.096068652251345865 -0.13719637478583804 0.14574794810004552 -0.11108793290455862 -0.07316533858889572 0.0042594767252596309 0.14556221070105538 -0.031841271199106166 -0.10747953644021241 0.085466168219615349 0.046455527124970815 0.10681328853796758 -0.080939116629168958 -0.070827441572304028 -0.025448100315623189 -0.0084296815236772678 -0.11126705696011384 -0.026427906463421018 -0.10125708310555893 -0.013595832124317064 -0.081956872745751044 0.1444843699760478 0.15747914122963078 0.074427770318507946 -0.018749716174993707 0.048186367402331301 -0.030405802374300038 0.10095676679255614 -0.10910295910111516 -0.0057395346643882078 0.028597150086096628 0.10453661929327296 -0.04809783825416223 0.034829864673545555 0.096953517292460836 -0.11477052670640278 0.15433777391338455 -0.11247939512202071 0.13197334084920254 0.066366651524757278 0.060810214656524732 -0.13963112349810503 -0.061079035590795493 -0.1360518496445727 -0.15653191045721823 -0.098068333858949558 0.075042773151815192 0.15080710440307682 -0.01104666833579334 0.13114297408855521 -0.014793118484440313 -0.062685875161775026 -0.030687758708932224 0.12901297003263973 -0.12196992051631976 -0.13037808984359381 -0.046445412341199296;0.090873148268308376 0.14983401810956454 0.029565945467272661 -0.13256308505006392 0.11760543052733524 0.052769284495360128 -0.14400833332846494 0.10322184105379728 0.15524127654646674 0.042166593263870532 0.042781022943409554 -0.16592383389953635 -0.02861710071899053 -0.0059943751010802602 -0.094633410713219318 -0.094490224951963062 0.054927117111888808 -0.16286408525956975 0.10610209936991699 0.085704817521784493 0.12883377964662249 0.15826652577679856 -0.037454079932311556 -0.16680327283384302 -0.058970704093198163 -0.074623927606349172 0.1125613720651855 -0.052521384898381041 -0.12103719046832324 -0.05192984264501873 0.028052428809551035 0.12376286629753119 -0.16192595354539954 0.01451994839685504 0.030119712665423976 0.050663340609768619 0.0025740068179603906 0.048295115925823945 0.060380561461034321 0.0040556049552013971 0.011072824771419937 -0.065478407965480351 -0.056916641448323931 0.1583402771016838 -0.15452878198689932 0.093819394577512122 -0.025302671469400788 -0.072373000105779767 -0.066954888490316278 0.16495690288389803 0.12611242558626354 -0.069962713971912643 0.111811801575579 -0.025115572945425976 -0.03310497242324071 0.097503691429779521 0.14677868570323072 -0.0016595157904088663 -0.027862204518280989 0.074596156413133954 -0.085786926460579116 -0.050835014655121372 0.13763220526058625 -0.13163320723341052 -0.12514593507025734 -0.12790023596411634 0.1090155430078743 -0.10816261601412638 -0.027459080111698866 -0.052993210989163944 0.16289811900929152 -0.038343030144330117 -0.12569103819664218 -0.063876645877998989 -0.066441199966412776 0.072639323614138052 0.064115669914331236 0.0021940731686618093 0.042001696847439068 -0.14959699989888517 0.0094265850138826913 -0.11531157983753637 0.11223618894612354 0.08157125554501217 0.14735584167135496 0.1623657691039464 0.10373830526418849 -0.096572830045992861 -0.13780237666257183 -0.063538219146257693 0.054940265848245413 -0.14710358746454569 -0.018782387538018124 -0.15847636472095217 -0.023324851354295569 0.0023310675140543889 -0.10494129437641551 -0.00010807017694453708 -0.021788236691471757 -0.028534619664739257 -0.077443195773391205 0.013253241132149859 0.1271194897645769 -0.14756005714246975 0.013063736436155882 -0.042600290633939095 0.065457434109356213 -0.12332059051815883 -0.031181428056694837 0.14624648657268238 -0.15583957752433295 0.0082121676571995927 -0.067367749464573135 -0.098069035326072182 0.043274349583198181 -0.13743969873120335 0.030751143990128189 0.10356643337771852 0.058152219984358176 -0.12610767547069027 0.1397402988680585 -0.11453319124430088 0.066472578053858172 0.011750510719209422 0.0019036928542643401 -0.11079339232621548 -0.067222127142631427 -0.086062351277260377 0.010945371193812338 0.074707296781452409 -0.011812112898421458 -0.041981370690631618 0.015066743155331573 -0.063085789345885865 0.040948441150585796 0.011984225785298288 0.14796175120569419 0.033067242719373328 0.063457532064656805 -0.031041902969690758 0.077333964124710941 0.0080517903567190272 -0.16351880016555378 -0.15435700608488964 -0.096004198089169102 -0.043550969570929361 0.037475874473733614 0.079878966762960663 0.024340238740513415 0.10025840441335272 0.12293941544738853 -0.0021933826983651034 0.096380761916699753 0.051332712963073727 0.1327362325598539 -0.11688017560985985 -0.068136876048547332 0.083787725257130657 -0.12473516375930274 -0.12597210918810223 0.11821756852561291 -0.030937337580080812 -0.15805957262674747 -0.025429005494000151 0.16389883174784123 0.096997610717555999 -0.14014572660282124 -0.097981335737990907 0.1099281695732838 -0.1194534138758514 -0.15372976299590085 0.11882737639434106 0.15673443196937739 -0.10135137588581765 0.060667926833773624 -0.084538136160422009 0.051247108086894297 0.01109926340030405 0.048665365612710683 0.007006116034299327 0.14427671296201219 0.044536810493303068 0.032762440311457773 -0.13831402114017721 -0.020202918913337805 0.028750811648463572 -0.041156066461449703 0.080035382457119164 0.092090123299540097 -0.072142752914758773 -0.099506826285599911 0.00643315868931297 -0.15240115146968677 -0.010395190474138886 0.10781335239789777 -0.12253276497048896 0.056860334906392591 -0.15363421684006645 -0.14905919664238065 -0.10945405544403455 0.048794191618720818 0.1668881263667755 0.03442165157410227 -0.045776255682618061 0.091825039864372987 0.13784718533439663 0.106737167591655 0.16427764797569278 0.0016763968086235463 0.070834766811683089 -0.086582628046186105 0.022722904531335769 0.12543297939372108 0.084576285325822315 0.052963837455007934 0.16404804224934527 0.0077457176616698995 -0.1291981313632545 -0.13738145256498976;0.10491962667261469 -0.082135759971765268 -0.069277581440025521 0.083615970052729083 -0.0050645567299426961 0.11136498677780772 -0.053567951918945346 -0.01855167645393235 0.10798961701400508 -0.11452386699676116 -0.048286878926195348 0.14595449846894498 0.063561774475590374 -0.036457323043040862 -0.013909040622807803 -0.14544441532228589 0.0055362373717364691 0.050704485623149199 -0.012431372133322724 0.12810537880557907 0.07554804371454317 -0.042732430408571137 -0.11287720651281326 -0.098775120526187116 -0.022489856184489308 0.064318793713190575 0.15087568221031095 0.0049257120160307692 0.042164906822237967 -0.14025447186910975 -0.080277696353199868 -0.13901889797038344 0.098598267957482763 0.14284444853784303 -0.015809893836379475 -0.063424979661342029 0.028529028985033147 0.056371856560707541 0.13105549314299902 0.16068440927247973 -0.14668555830485633 -0.032805660024162825 -0.057504547612804012 0.050207020821118276 -0.086461882263945883 -0.064307626762266396 0.045859927687960447 -0.046014264253758423 0.096280096698179371 0.14851061527545811 -0.12078336335105061 -0.081629699477066511 0.11456540515203066 -0.070159826724189786 -0.013727237716548771 0.020176056739210343 -0.13479899532945319 0.085047239429030461 -0.1603033028168242 -0.14492548399066604 0.077551611526947672 0.076939214657892427 -0.11520113598707074 -0.16101336467979771 -0.14933680961004597 -0.15013353709142033 0.11563453251025051 -0.043261614547928186 -0.10575325915951352 0.12268579072627583 -0.00504230528394339 -0.0638289815581463 0.080769792252876255 0.053868300568776117 0.1040690724572349 -0.12964078127279605 -0.14105499534630825 -0.13495501944812999 0.12116599479290625 -0.13441717184382893 0.040815547933523197 0.10555218949161575 -0.0415633827060801 0.036895292967039146 0.042632054270797186 -0.094573925140174916 -0.083341241962110693 0.16070643370272544 -0.087872176395636561 -0.11722834504506532 -0.071391835001875847 -0.10674935007994521 -0.13295123710267592 -0.051963402944900115 0.14229369418044538 0.05514803019592484 0.057066955445517362 -0.054027616967284829 -0.048331717868812706 0.15895844695138614 0.1167390024579109 -0.13585766332634314 -0.033082416459712369 -0.024829363456999282 -0.063694906442699831 -0.026435913701947929 0.018796384737447144 -0.023883259857056329 -0.067790574510733448 0.14942869511087389 0.15955044964909132 -0.00031417861280367545 -0.047500489502342542 -0.0083416121935352295 -0.024658443939167895 0.037473744831362947 -0.14250473992494325 -0.0010414252496889383 0.088434900974092609 0.0090857590733972923 0.05331042557621949 0.081254749257626782 -0.066687622739140182 -0.053972144653738854 0.13002544058741142 -0.11777696463734133 0.15762944760643949 -0.11651299919295778 -0.039554692427500177 -0.034401910165565742 0.06924816687913754 -0.10904613549824364 -0.022005911685902005 -0.15180228988891525 -0.11519188918346436 -0.12122200691177543 0.06976286026913521 0.096947097636848667 0.15284817432710091 0.09273518704574242 0.044899238555307433 -0.1236992167589137 0.045405050617147814 0.11085757825622836 0.0081500774196711402 -0.12999085393397172 -0.14884142323632096 0.12683262859123273 0.15377237725339973 -0.036920490170481469 0.076359276599443776 0.074875917512935777 0.0085062722396355289 0.016515636370953928 0.15780607951281708 0.1574983747540413 -0.15880090531729854 -0.0085302852628577723 -0.059783409928703249 0.051863217755065166 0.015442098326938158 0.12078873778229439 0.071246228216102048 -0.036826800259305875 0.032832108669787974 0.012090968603899464 0.1277663864613067 -0.11310973215264535 0.10940525022804752 0.026780531988936269 -0.087691981333372124 0.15445003203540794 -0.048719291980455694 -0.1168445597977212 -0.14055855601224299 0.0064114588095434844 0.0076087452157644186 0.13925013442515255 -0.12224293080361018 0.069537908184934744 -0.13598057835881708 -0.078475786318034549 -0.10334740497277688 0.11676557224516872 0.042432112459304124 0.090843269115449293 0.016234336704473596 -0.028423980059087067 -0.04937022679247921 0.14430270279293861 0.073749005127421122 -0.023711578584269033 -0.088848342755555823 -0.0994855970649004 -0.028968386727898511 0.018249209072812238 0.063284326240160685 -0.078005347130113992 -0.15056828832957644 -0.1611338249657972 0.098681715247112473 0.14615819462103211 0.027404826771785018 0.15667063105222898 -0.034286871960018651 -0.030251629719751032 0.14750192619682009 -0.036962046783981982 -0.14061206025956166 -0.1261728814422205 0.074155582752530341 0.09543411654557149 -0.12555272196119902 0.061322402187350959 0.093828385010989251 0.063168424853977362 -0.091545208471768405 -0.15637356789453799 0.089700711700982996;0.1331628041143823 0.044694377175654373 -0.028591477487556929 -0.096275186983027186 0.040114629742009252 -0.0081637791817075703 0.014925834009942018 -0.15833048195759733 0.071880047283170503 -0.028019088147196378 -0.024025458945113109 0.14000543360807349 0.099396940945528645 -0.014710866217769195 0.078600716254048408 -0.062925045098662369 0.020406043968706367 -0.10941493554509341 0.12586519333636406 -0.13620328745433274 -0.081800029825451037 0.065207643314477551 0.10319387239070403 0.15978459835982933 0.0080271025502601581 -0.062719740756095085 0.11530719753342837 -0.04069721039252646 -0.13940125476124288 0.012707369017504452 0.082739275630374851 -0.12872709247490133 -0.037231809010165567 0.018711681120547351 0.081992101998824771 -0.16008010348488499 0.060992790890501782 -0.035394110561776784 -0.13819870281460706 -0.066129600804202965 -0.15908431201690507 0.10585075385068882 -0.022349854614851023 -0.0099506877962490872 0.14929328631046437 -0.068099823432949902 -0.12403928582907602 -0.15839024565856405 -0.072299089517764911 0.00028012466418594895 0.023174503602437266 0.026923019428310133 -0.14427236980211006 0.032606571702824674 -0.0028169024040561848 0.05278601346727594 -8.0779310816885257e-05 0.1311636940957048 -0.063675474615230418 0.12317071126801003 -0.023077868734497502 -0.049193854424220758 0.03573096611321859 0.11856521524800366 0.093476784437668617 0.13893762053993691 0.07144349416447858 0.11983913742034123 -0.12647520149968042 0.0097964823729893707 -0.020572971513186614 0.014774269928307826 0.028044780356466195 -0.042165732287171659 -0.1506191513034634 -0.068391196304829691 0.0076839643736213992 0.079241724570448285 0.15663521704319225 0.11427557004706886 0.1609505335195682 -0.11070133531594575 -0.14593117864012062 -0.12525820701271725 0.020868879560061931 -0.088076014533153044 -0.022624547107377078 -0.070845922691626914 -0.12174412575875529 0.04296618976478131 0.108894334195645 -0.056132702349034155 -0.022132023502449218 -0.15238428817112054 0.076623084655520132 -0.1649823090135811 0.056715205070462155 0.026823644833471556 -0.13406896812792812 -0.10591707680992479 -0.074124031131197476 -0.15551184296459014 0.12323204209619257 0.032401894961629277 0.10142480232577684 0.018888481152246898 -0.035228109359395021 -0.094801817864723692 0.10901007385689598 0.10352976602623516 -0.0053067047222924999 0.070072749290384234 0.12465882715801006 -0.048292199409745773 -0.074562474093198536 -0.022387040303344954 0.13030660197659069 -0.042120695117708586 -0.098857329568838706 0.097085364205666658 0.0063834869251480448 -0.15745710797712981 0.0579284827941456 0.12829717457450626 0.1612932694967274 0.079812407916360878 -0.078584174843810015 0.045722742025817061 -0.097041906323907509 -0.15175341310080781 -0.087158330663700878 -0.13545164259416484 -0.15143133063573794 -0.030174318560510564 -0.02552612270149316 0.065555289871909284 0.1208827234502665 -0.049422353893059691 -0.15616041196466598 -0.13559993917130334 -0.066584042766170706 -0.10514670186814651 0.15406766849201264 0.16020350729996166 0.09300786679589465 0.13951081154094871 -0.14959115963936384 0.043481845299060448 -0.011623312400929495 -0.00078508821955137402 -0.010806079220713621 0.13759919745382379 0.13517910201580241 0.13634245333621475 0.11344257424183218 0.14181860533371216 -0.11879640842125676 -0.10456300536643963 -0.13334769670544397 -0.048213902102235411 -0.049727568488155183 0.087814132367765127 0.001293456998155286 -0.058137650091835573 -0.046388019939286457 0.082185506916360895 -0.092192322762300133 0.044222600664061126 0.14243567045330022 0.0061532654760670909 -0.10541714750433898 0.064056772539753143 -0.044905549005712121 0.0011693285320449084 0.12846017403971263 0.09176260311437337 0.0061069797440153244 0.14992079040599585 0.11349382604639953 -0.052688220377655165 0.053639750940642009 -0.13119981582127982 -0.00088610095205115787 0.0033095864117487312 0.046888832610897255 0.14263542549938291 -0.083267742889022417 -0.13568729502975335 0.081426703312856633 0.11501136519797778 0.11209033456290893 -0.10167820631945394 0.012146584143111868 -0.05958293309287617 -0.048792441542626852 -0.079971890765213841 0.15544472833415315 -0.035534388272978473 0.055327494508619637 -0.15265255978663386 -0.039560077193269774 0.10060166158712186 0.029756105730782866 -0.065384956493666338 0.029800288575631603 0.059297233579268506 0.12963831700962322 -0.035773698180981757 0.068720974645647762 0.15741543057896601 -0.053230759261994047 0.15930791244234302 -0.12286574047125512 0.15569330603153936 -0.099996451402005873 0.16324241274148316 0.13305815676133814 0.12712834199450734 -0.0028186125151061841;0.017603576223853307 -0.047958559880286002 -0.071264246976345674 -0.12967549602484113 -0.074836763102631987 0.088447649368272416 0.075632641691458224 0.036362544227028448 -0.12487389065088868 -0.15639464683161827 -0.12281564512455816 0.0009575872767783964 -0.063145004713414873 0.1412499274677759 -0.083264156681345639 -0.076265146407199044 -0.13050149854021914 0.10633847665934885 -0.11730639079105519 -0.081692171773672925 0.031123801464022546 0.14776710316736838 0.15347827235621356 -0.1636092455600445 0.062120126210206641 -0.066706609054047447 -0.016080592040506055 0.11382444357905014 -0.095456531897474078 0.12418733321308206 0.052294310139096092 0.060151348667940939 -0.013998458136810634 0.14878510259576336 0.041888589881888642 -0.015270469073424558 0.094984555377109398 -0.047601747489931845 0.1232371271100859 -0.13860904552189474 0.083377537569616564 -0.14606861740723395 0.13285705375344484 0.1697091318859083 -0.080506304453151711 0.049400733402906342 0.093555461243385901 -0.12307250450560532 0.082844464440968893 0.1307685488455039 -0.018280936340286255 0.10296525343814271 -0.072158873755775094 0.1168227721069459 0.067903473763521432 0.13066847194675796 -0.076460064713365153 -0.061282079922523165 -0.041564705279940176 -0.056208884446874892 -0.068778232068855596 -0.14010808649087303 -0.011539685582022485 -0.081005073660944282 -0.13688890203233073 0.10965556959155744 -0.12223365826590263 -0.15595323563954627 -0.12986468987825009 0.046201067986159673 0.0056054645886122918 -0.13368459903373939 0.087189523121796245 -0.045443955662679461 -0.023958354890430581 0.10966821431184115 -0.11334212930129034 0.08511611110769976 0.087116548346603914 0.015989037840221387 -0.15253945761522356 -0.16936121417456423 0.15601892573053 -0.11641549607331193 -0.11838973899573139 0.0068079038771223215 0.14892425267965423 -0.076126412069535548 0.086823632100584358 -0.054683629431148663 -0.050728929145735159 -0.14700350664695863 0.021224956260420185 -0.095974337271460264 -0.090364486711739564 -0.15120966051447038 0.030489457148803412 0.045417579853343097 -0.06025848060329568 0.082363272067212986 0.12893117265102058 -0.078519078574825388 0.0087942363889412581 0.019741466377762099 0.027418401268796445 -0.0051789807182631388 -0.061069965222333211 -0.014072825959968407 0.077030016583117658 0.066731923766062434 0.11731037408192094 -0.082986838299172014 0.13343121187560114 -0.13266164819169235 -0.087404208610628045 -0.064248941265061185 -0.098239843423423776 0.10332324165506614 0.036142909231008845 -0.11045072945757561 -0.10888982941793453 -0.063601465714905506 -0.045835437981130038 0.07638956539453523 -0.15237253156114935 -0.01805779707284403 0.11864109493333697 0.1300592913725184 0.16011553933968792 -0.060700698902833451 0.089193136260148284 -0.10001739572858317 -0.044686222826595616 0.060401146891239446 0.01170578757160291 0.11910499990096805 0.048380237277850437 -0.1516588814340373 0.017073673684900592 -0.093218600520419373 0.062801910540947678 0.009971033554246906 -0.087842361622204074 0.083785287715323467 0.14599202530901756 -0.053601533380318193 0.078901515518707221 0.071741623287897516 -0.04682973668542259 0.023878879084684342 -0.079224991825151247 -0.066955494398171223 -0.14272232750991504 0.036861441660576602 0.073063684834456008 -0.071802833858067169 0.083476155930970131 -0.1232360500052016 0.11223849376053313 0.061144192982992465 -0.12947007925094753 -0.11144932353128409 -0.072244905520228678 0.041253466852222385 -0.034600663871912282 -0.094512923958116543 -0.152512926756117 0.065835980420200696 0.055775288111120577 -0.059073657405410533 -0.10239017899829042 -0.082483795456550657 0.03876674318175443 0.044692005502039077 0.136469870374583 -0.13048902644168453 0.1212731188897864 -0.085430714527019544 -0.12341544368664129 -0.16175748612191707 0.038552847714016132 0.010589011720728949 -0.055781647983766718 0.15564478080516714 -0.16076385200179907 0.032412369435298079 -0.1551244138991103 0.046656674591623259 0.10234889082711174 0.10444753052464217 -0.092617544745194624 -0.031979371372843859 -0.0029194302825779868 0.10946687355384456 0.010668421975476784 0.017318238875347124 0.067135136356137673 -0.11169096268399016 0.1386049900947755 -0.16684442104744573 -0.12058115505839218 0.030796858258696568 -0.10021872798515104 0.15922091228578747 -0.16978864670798557 -0.064620471316729516 -0.12142371457202447 0.10546492109112891 -0.020704438678077603 -0.1689088343218528 -0.10960548611607809 0.018144559095754343 0.070111272539078326 0.030007939264931914 -0.048531494488787526 0.052999323514758799 -0.12336837821224718 -0.025200343634976852 -0.025087997118542711;0.075067631617612457 0.056872699718080871 -0.13623155454197097 -0.13375180068796588 -0.12969237017850346 0.078128725017882109 -0.039875571653217395 -0.029697321017103075 -0.068806039667054661 0.020748762036494509 -0.15391313320823224 0.14655530654323326 -0.087817172278202599 0.14827153155646808 -0.021153937878647083 0.10927374101503692 0.033427607827299158 -0.14599867615921805 0.045824801290890997 -0.11943901413867948 0.15467770000712422 0.037846898551195773 -0.068390103812194319 0.12818024859027682 0.059407642246006892 -0.031381386753030018 0.057901941279765397 0.13081504468689373 0.055968875057739911 -0.1557653875048027 -0.15448387236352448 -0.1558789757181743 -0.12958745128506172 0.056474743903206351 -0.15412806304041488 0.029876730783539383 -0.018033969236001177 -0.054431695144451203 -0.035197085461580895 -0.10295262350520777 -0.017968221819781256 0.067530075592004371 0.08019430985867218 0.15625803339877298 0.035225149839793204 -0.086773964025610398 -0.11406810179979064 0.13188223876388358 -0.16088290917115877 -0.037594100556909357 -0.010465765819278463 0.019711977124426037 -0.14876598967931995 -0.056000539553224121 -0.079809865028480753 -0.026522685156252303 0.14715842544936572 0.093932565590766084 -0.13385457291406175 -0.13894188808698704 -0.03870085009041567 -0.0096234467029909336 -0.070863566244670856 0.13526283031310912 0.013263667870490386 -0.14283341393177559 -0.090376761133849959 -0.018591293636401447 0.032527213766000949 0.077559591909852232 0.10533672070037101 -0.13632988095598098 -0.077967754448205195 0.046537103957233518 -0.051997444852165599 0.10434355888998946 0.017833161138239864 -0.02205737886690122 0.10328290418890865 -0.062647558778489668 0.091726102180994348 0.012967231953221567 0.09620856970890386 0.10627072954167434 0.1314813593831673 0.037068109772716511 0.036715846890034091 0.068365546251563478 -0.068781262231620385 -0.034541782215700131 0.025477520671599037 -0.16054258247744399 0.015239252829144101 -0.12556927723539107 -0.0079757351031526369 0.076139944846312119 -0.046141098939646227 0.063176273356817081 -0.15476478868513269 -0.078987314060244479 0.04574363592751176 0.15160756576500573 0.10786673660348149 0.11908273556097743 -0.14049548690489441 0.024821604552370712 0.019981646148414849 0.073561601414510347 0.10212445623247837 -0.10217585611994723 -0.15703366491644957 -0.12541613577756186 -0.090861956759047527 -0.15267797691018273 -0.1432835605933325 0.15318044211944629 0.091332301880818589 0.054676197401902292 -0.14952962755166008 0.14477685944391591 0.035427979699620998 0.16154327531496535 0.10549056190911979 -0.099724784494313753 0.1496836887830883 -0.023397895060047344 0.15989558089295339 -0.025700742212250795 0.12543498732041433 0.044805510297264713 0.074000014422290081 0.0087545599758167541 0.0255156951497774 0.078904632497344585 0.022254913900790992 -0.041242165785351635 0.14684747986104391 0.085194488599493925 0.086143996859839519 -0.035796623004336489 0.096390807730422703 -0.041831065025872277 0.0066308135016355891 0.085981661924190572 0.022345078463470208 0.068530581560370951 -0.011588989342500276 0.016652393718983836 0.063239436913020849 -0.028212122306380621 0.038135519343332994 0.072960874955765656 0.0020004179581278227 -0.087320774369761475 0.036461822738834811 0.10135447624596201 -0.12296354119271313 0.15426456661038021 0.14728066833149714 -0.029844995560302817 -0.13976322020719484 0.022310564763280388 -0.044350088000508145 0.053258151030738408 -0.15598831040872446 0.091615424276410576 -0.15500003792637376 0.12246697104278272 -0.018614794153482897 0.15747904484468112 0.14147305774041383 0.14846988732846511 0.014199004715218051 0.039540604878924815 -0.046278955147117523 -0.12081325503055096 0.13091864123321867 -0.0050120457314272119 0.074731743114521229 0.011349849881152521 -0.1595597438469285 0.13569656961084908 -0.14582100142769711 0.14968250453584125 0.11113124092875641 0.11987077818164078 0.083080756303075903 -0.0082410699041237431 0.079002161892242032 0.096943650203800497 -0.06486111037676115 -0.086500136530183958 0.16197988248863357 0.062065142838001006 -0.076136304719922498 0.066243159241605024 -0.13236861826347326 -0.0034055651188544937 -0.12901518026214631 -0.050495123980689866 -0.15641321969818842 -0.020657328587167862 -0.11951633028756427 -0.091400596488371705 -0.0050393967515083484 -0.069713327508042613 0.047607616256095407 0.0073543720446421889 -0.058815476798116155 -0.10274259852384431 0.016217237166914662 0.15302690274386788 -0.10560743156182298 -0.048539761690492497 0.11803527543010332 0.041262762985649265 -0.00043499078750040723 -0.13648060944192125 0.083986473428811742;-0.098222109809326233 0.10933293596027273 0.087190327446971139 -0.022058802779412717 0.096270455429391014 0.12126880508716545 0.14213462246583469 0.046070006944659937 -0.16517871707860726 -0.12972027925702198 -0.088919795163199533 0.065203722146508075 -0.1431814795012358 0.12879444976877802 0.12314993205103932 0.069579033032586987 0.061326223889664112 0.12056781120304981 -0.07545011839354604 -0.084676593291266963 0.13291069450696866 0.15110722379244992 -0.069956418724117744 0.095783994365662484 -0.13988784734919438 0.087824896718183873 -0.088306478178285255 0.016742799950011936 0.0057137805033399148 0.061812207327005889 -0.064973674257690628 0.063774551210719538 0.04912301756392521 0.089723962553460823 0.16037974160298557 0.0068138371985329788 0.097313495127916719 -0.068915971213533864 0.022371051775257649 0.081594667722934194 0.08774008684846335 0.0038425489565425859 -0.13725405420301423 -0.0043348969255165137 0.060475318575770189 0.10508144155248166 0.0030306401351322182 -0.127206958292328 -0.086419418098919454 -0.16356814152226112 0.014772076853179536 0.063047589213382563 -0.055872172036415452 -0.042453374939727492 -0.1490041896093314 0.096775110902561925 -0.048030970460846797 0.11009820111926201 -0.12030890589786804 -0.11581185232169519 0.15523948525980982 -0.048566666796884414 -0.09721777575612485 0.016416299252227363 0.036969713086962779 -0.044254032904145868 0.049643993167568901 -0.14020798039825225 0.15359328759607868 -0.061986750753228487 0.075471413707252383 -0.011239250392641769 -0.029699729122589578 0.01668750472753287 0.15583695009455614 0.12528688888796882 0.033389480135924521 0.039327274554897818 0.1130454640346417 0.12915098003239037 -0.0041163980404554656 -0.10882449933107582 0.0083126627811207186 -0.1052527272670588 -0.080475214090458935 -0.15305740634293655 0.12276380951553827 -0.13364670617700786 -0.079231879422017953 -0.12679913581610364 0.16000212733731484 0.011253825984646745 -0.11131007245038343 0.145036346533579 -0.1495570064491846 -0.13270958818016296 0.036599402362439165 0.12537507651338686 -0.15022816899963648 0.13846879326592204 -0.12598592884196338 -0.031135931515401602 0.021994441123427369 0.03903540555006961 -0.0046810161715844329 -0.028333690559729455 0.0092361180530643495 -0.10738625879765203 -0.030939479105341713 -0.023591422717577974 0.13061115591259584 -0.045320966516360209 -0.090193961954262727 0.094852215818226934 -0.032382798781446627 -0.059158974841959144 0.1471182016855615 0.027413443566017028 0.030237013578950356 0.073935261996717308 -0.086406511896120974 0.13182635650208316 0.061010387984522498 0.0668253703016186 0.15498901534728873 -0.050914900391867177 -0.11577779744735527 0.15246709108018144 0.12203660328368812 -0.12405179078312256 -0.038296352122006112 -0.023385631885613347 -0.11903947588764933 -0.15278107854263698 0.041978228419652229 0.14692898211375602 -0.00012750320249382135 0.096579275265719744 0.026920387188294585 0.11728927950047524 0.13272085207067574 -0.03185094415958712 -0.13989185136652432 0.073165808646562622 -0.0076034105152535869 -0.092684546894817366 0.12275021051239927 -0.037409327231183037 0.0022125035604233338 0.015777043331094899 -0.0095429594471867305 0.14684963282190402 -0.023514609846975825 -0.099161099127697924 0.0079658819185658425 -0.092948407990742776 0.077757234177013218 -0.049469294095381325 0.14983084233930904 0.15711055970218127 0.023131489131636266 -0.021580807322895863 -0.068517683372298063 -0.012533505294354114 0.023358113665391932 -0.14922953925096016 -0.10197101711609846 0.098815795788051525 -0.06884879813194994 -0.14940732263882892 0.094133265809257488 -0.078067388969306886 -0.13278734859000124 0.086190505792578365 -0.042480313377109093 0.08776151562031255 -0.062465084160105072 0.10094841022291154 -0.12776108101716765 -0.093315348190424197 -0.066009599389539153 0.0439137723860221 -0.040461961153560017 -0.023795360646608033 0.022410555745698495 0.16404654463425036 0.16550376308034528 0.074900707515734272 0.038990345269946748 -0.13616661178758274 -0.10610809771744403 0.032287006886324701 0.034477898573624259 -0.013932024512677563 0.080036707228909501 0.12651176631924338 -0.1368774717911756 -0.063198254062098044 0.14761659393505439 -0.1439915316048479 -0.039878367030948825 -0.039892488866062954 -0.026788228419475191 -0.047994801567498635 0.14682605999088771 -0.13372278241497751 0.0334009097947323 0.14042130458318478 0.025496294918925588 0.11501541302916306 -0.16113736217422073 0.00457110173220052 0.1098143384749537 0.12985943129971489 -0.12773465459004113 -0.1045402828546798 -0.13244524558157489 -0.10101625163886442 -0.01940104873239093;-0.1601591370059661 -0.080871941200158406 -0.14572030619145393 0.10714516477894812 -0.13405968428804546 0.029474707380522585 0.0022497842786047737 -0.13772442519073783 -0.11931889300693806 0.1294631056224228 -0.092613488206625641 -0.099369777356200145 -0.097415522734697391 -0.1335263251217125 0.043047488863111931 -0.10196398956272401 0.12489057213807873 0.035388020105450467 0.0020707373918213176 -0.15422197821253983 0.024762498307078155 0.15523675856325167 -0.14884081764453524 0.02172119205076127 -0.00026046018451587676 0.14405863111045961 0.071596199483992817 0.16241003324123937 0.063556539019183664 -0.11969995213349859 -0.057642573251183736 0.017224729039006691 0.044798929822674347 0.040647834947230004 0.087262162860967496 -0.12153895070662911 0.084114305315704768 -0.012704949048413537 0.03120731539425161 0.12014077221916857 0.14910302566569822 0.16043711624700241 -0.008285409513457357 -0.029952254982824777 -0.050688609765758112 0.10213675155915015 -0.052816355761183841 0.064732356790592402 -0.13225126750093283 0.021551074447842163 -0.022956718590201597 0.12397945766313216 -0.099842422993098479 0.12538410099023786 0.035134158810436945 0.090030208392871638 -0.127127702446998 -0.12688314904551218 0.011056543352156419 -0.064679315158530967 -0.085425572236453168 0.095131286924156525 0.1070446754179578 -0.1192959640885865 -0.11295957829802349 -0.15181796023196673 -0.12952135611669996 -0.057253547176715464 -0.1217165574745751 0.087790825837126663 0.14743083965117212 0.12441647175767544 -0.073301116592000934 -0.00061868802918386826 -0.037519556017549832 0.08471862171104326 0.16280092794200432 0.080563255679447179 0.038193315142094814 -0.019004197077725028 0.12559494914091837 -0.11243151731204003 -0.041073001704571219 -0.1297531742191104 0.097622903999349253 0.016417386106785115 0.099657783998963828 0.026379340396236559 0.14275174943229602 0.065888037371618843 -0.1325735190304681 0.019074115916871047 0.08541067430877658 0.14459948829328034 0.12728832221991895 -0.094599907410139544 -0.11245020119165862 0.15965023222663963 0.085552315825839276 0.033693486949303075 -0.16877383950432293 0.1651015802544972 -0.068452563770049976 0.099309510719585783 0.037826122264100426 0.068169522301535473 0.066843165782427882 -0.10208921141430193 0.15285594210249107 0.091722383933479104 0.095111024064705091 -0.14110802606912543 0.043738885398768593 0.064691834423018194 -0.00030147025213796044 -0.077972929608426528 0.031152501267592135 -0.13106383090680906 0.040124762702572765 -0.030391607806593186 0.10843581716512526 0.090226269953854951 0.014917316647880737 -0.126549563209646 -0.038491698352682686 -0.10614423970914046 -0.15968071755131502 0.10945182571431977 0.16901546280346103 -0.10553628619553086 -0.091084843682063266 0.070568717359924732 0.068690038145795759 -0.11128785123652583 -0.12261433210716216 0.10530317433397245 -0.078934143634619425 0.051358691977268132 0.12100672911664519 -0.16969948084471748 0.0018628631816436756 0.04055747450228922 0.13579436910392717 0.029826979784785122 0.142001485730572 0.059125265741440378 0.12176880924126038 0.070399109991359204 -0.014654564069035095 -0.10323909054198248 -0.11780316453772929 -0.037006036065796652 -0.048845874082254145 0.10894997994980699 -0.16176292777145437 0.10566567898630848 0.03572974901865824 0.070705082523838475 -0.099769567134547696 0.062644667557988851 0.0046494093105513374 -0.082547884247177669 -0.065411604795333533 -0.012405560304185435 -0.086738898351425162 0.017167772850636628 -0.0076682373291923145 -0.12813089600789565 0.033884961658617027 0.11051208087347525 -0.035179515045172319 -0.13815037976464439 0.093143380640311552 -0.1016941035047798 -0.040855164565660809 -0.16818131091074684 0.017114169908560455 0.030070642813391259 -0.083932747672596175 0.062048965783949965 -0.10184266497180433 0.10220693534317578 0.020774055329410748 -0.061999920767646891 0.036973622197143848 -0.031195261409791872 -0.1191498928082305 0.16329987885202091 0.011618891283784251 -0.13386371077221415 -0.0034490858701298173 -0.14947503593396971 0.070662027163823388 0.12514106862186325 0.031316264611399858 0.021838255532729944 0.059661709141999857 0.030259193515368842 -0.15659555569559386 0.021352055780636901 0.0098828157603226517 0.12339034289635074 -0.076403396597024276 0.050551804846412828 0.047714064070869047 0.020821799004309957 0.095980660336399598 -0.025862249201137777 0.11507079042203469 -0.04520372549920549 0.10797030617855342 0.094018414098778591 0.11679961472327732 -0.13626090950666728 -0.021886727709193022 0.1303676424052877 0.066888773579306129 -0.11806954549120237 0.086795266889035855;0.053626267828696048 -0.1032364675145904 -0.13558982038723244 -0.11851823415801541 0.14664690061405847 -0.1318506297049935 -0.15256247845187354 -0.068793233989288174 -0.15977611519127152 0.017763759485826584 -0.02108357269474068 0.021741959365686538 0.13335049485242456 0.12898942937939264 0.13824519855714118 -0.13691124924547163 -0.05221567592857166 -0.046225015345140889 0.15424601466492552 -0.11726985595217251 -0.15443978380509668 -0.060843590165235759 0.1255720720278502 0.16652404719861025 0.043142062453282976 -0.030693576668215802 -0.10850082705768425 -0.03487750581532123 0.022160807628971681 -0.054058754149801179 -0.075845903965491693 -0.11564342627301151 0.0024484460691959857 0.0094045651565135349 0.084696607562530862 0.045623815983605556 0.097335592366814633 -0.054218716630380533 0.10345571907541609 0.13105287820893824 -0.037416794858689602 0.01997801603285557 0.067418717093729 -0.13830326956424446 0.015604132931830257 -0.050685237468755445 -0.076653326120679058 -0.040183587581536125 -0.040749419721534501 -0.16136765667632622 -0.0016664199158471342 0.02108767344028328 0.030237633358009573 0.090350985862622579 -0.13530426236838269 0.047935532045987328 -0.035894456726318608 -0.049047457170527636 0.09862253420449571 0.043698217880258738 -0.10417476201525117 -0.035585759355816364 0.081216604134864104 -0.15645532854631564 0.070360648766599795 -0.056377930469076777 0.049821512162543762 0.021491754940713953 -0.089276073325529989 0.059431005970345126 -0.019944383165248374 -0.088960718630557517 0.11708738969304848 -0.14139323747289073 0.059722324118257529 -0.1340419998538252 0.14702535512835438 0.077423330132952078 -0.061125963539705806 0.031268142304525438 0.13934639137014465 -0.090504387959805338 0.055473976870417552 -0.1636263706471103 0.15974707236626864 0.080830257719103141 0.091462125879117825 0.03631514653618937 0.047261427848978396 -0.11806183288917957 -0.02421144144547651 -0.095118025272346446 0.15052340560607563 0.0046364938072386997 0.10884330680764462 0.036598177165394492 0.020576074381659093 -0.13310843539945899 -0.098759762999389447 0.10215173332713097 0.1110501305477809 0.072088373616452928 0.05587011521032275 -0.079264529731330413 -0.12018502960165189 0.0083180553248303323 0.11957802517652542 -0.12504183094921359 -0.039316405094348014 -0.1010600672031077 0.019381091430346883 0.066031302445731549 0.10905148380903849 0.048793706478260153 0.1129845740232841 -0.1355311181225286 0.04919856530963386 0.11131287053842628 -0.028798122244058224 0.097385413569907792 0.044628626352299083 0.15112500620429806 -0.023110384963494983 -0.028844304181439781 0.12006838564134373 -0.15142222830727678 -0.11176379335642071 0.11336357541117745 0.02559734109138935 -0.13700073856641826 -0.061683332777747985 -0.14419510324271545 -0.058097871093983094 0.13475186594452601 -0.16342463420567513 -0.10018847039736278 0.15577716120746471 0.14088286242248371 -0.079614943590429685 0.072185947820577204 -0.055612117975446913 0.064473894989874339 0.10696502780336314 0.0013529641588508009 -0.028238579633740532 -0.10158428289999225 -0.0052637078614083156 0.15787836116297768 0.061339985633655496 0.067717776983494599 -0.16467295427150935 0.062287315649208405 -0.091022590965776529 0.11742752812698336 -0.051198400512370013 0.017006564116651315 -0.05830486619676109 0.035307170645716618 -0.040083487536304918 0.085034064024867698 -0.080716508424236638 0.16891807367689501 -0.12932506839252786 -0.1195504248022798 0.098575144300959511 0.11779635158504 0.0069130416073206261 0.079668745572025454 0.082995415914010245 -0.022646448132315363 -0.11771020044938164 0.043764438497644394 -0.10935707306904059 -0.098898311844257694 0.15486461447433333 0.10792944212506182 0.088367897586234659 0.14431994343508228 0.028222875459037247 0.075287455409602105 -0.073353976043968108 -0.078945996344052957 0.022710669897719638 -0.043868818848088367 -0.14109242010924331 0.16879715671912621 -0.016851811859668067 -0.061955365702685783 -0.1153580814075764 -0.12677949988758322 0.14041917132855575 -0.092310367968332571 -0.092403352024657812 -0.12593744827000161 -0.00098933734228245224 -0.028523273762382902 0.02624432717274414 -0.10932453410066288 -0.11425060646573433 0.12122071594126382 0.057258199484358722 0.09342145906007035 0.069777950988042667 0.13464653471797136 0.14301316246018375 0.14921334902383379 -0.078704699664934652 0.10864749203510891 0.13987792886058323 0.079968098544957386 0.074047933116818385 -0.059812486119717678 0.11851704371297538 -0.013731567970228802 0.046557945303042171 -0.12779899665597061 0.059521178231477748 0.065009683430019213 0.13900400289168374;0.030147201202257258 -0.071900786765130745 -0.092246933484872173 0.040883934146174326 0.14133261522523899 0.037527448157415162 0.17068663172025564 0.048952363576503323 -0.036183381552469938 -0.12178278795500232 -0.10770522114828683 0.08398329119210847 -0.14876785516121552 -0.16057170750658237 0.078527663311109844 -0.14472962988149232 -0.020907952605922622 -0.16373696133089816 -0.085867638422872664 -0.10411905282210325 -0.16403530417296885 -0.087954788378290974 -0.10219691677336649 -0.15724418392004158 -0.10334148278384367 -0.050245583327554438 -0.039309832923498586 0.079354085907700128 0.16949384631962935 -0.1155770413527212 -0.13138655430582494 -0.076877444958457053 -0.078899564747656414 0.054497906015385698 -0.1215379440349568 -0.099188427941097834 0.053062646183338197 0.12565695512670894 0.027192489016276508 -0.060995982869567388 0.1069667443488978 0.028848040721811564 0.08075303209719252 0.10843258255493578 0.056709452579249649 -0.035856997532872845 -0.026793554179581111 -0.12331173396730721 -0.16922304510610908 -0.0017104018419043269 -0.14310998659495414 -0.077716193608417694 0.17232638082159765 -0.012571140815719587 -0.16854541977367046 0.0021791384425059604 0.10420699641589806 -0.0095270898127199147 0.024399725997378632 0.00024059728362954666 0.12485062402633046 0.056363486289377367 0.072868734010252609 -0.0086980506684942137 -0.038119129581740754 0.097058896211985643 0.16564149676535128 0.12401973275248998 0.15703833960027869 0.1478084541621813 0.086816108100906952 -0.075974468042864701 -0.16558454837512585 0.10484004914678235 -0.0090938420879496419 0.062396621190269265 -0.00078638895981037653 -0.06006993667788698 -0.103953313651948 0.059801631409049774 -0.062711002057926929 -0.13697791006790414 -0.066093681443548102 0.066827600084832711 0.15612664418673164 -0.060956544714577773 0.055380450303048306 -0.022589769116796863 -0.044836801264996666 0.097497800587834846 0.15844722369837894 -0.038143305591306138 -0.04129904176138588 0.16272109085256803 0.0090057603482432396 0.065131778874154098 -0.082029678608784032 0.08845421044461782 -0.14943750151314941 -0.061126889459832176 0.063607967478320787 -0.077349142123960796 -0.043765089077236932 0.080707795293568807 0.146370760521215 0.097523679858831508 0.04081045766514655 -0.01195041932922157 0.12529807218051878 0.095418470828610227 -0.0164522874493725 0.16635706874862727 -0.10540435160399926 -0.032514959427093412 0.030013213412070004 -0.085419291603918548 -0.010552551660575511 0.14447932976588113 0.10881933034648632 -0.14382977482303583 -0.012062568021038873 0.0090584251886605422 0.0035798809135745651 0.10986409183027604 0.0050071684678505684 -0.05255687444379694 -0.16783086672698394 -0.13413110382482979 0.14091933827897565 -0.049677180759025011 -0.097954002365362447 0.15387221553013 -0.081223242169337573 0.031807938810613577 0.02543439762902084 -0.13943300099634301 -0.13125995256569864 0.057653464722779171 0.0051100079448163751 0.032253614917796068 -0.089312810429333908 0.13810540146763359 0.016521891617154109 -0.0074519318233911827 -0.14500134491204528 0.12037078372224999 0.030838191296839054 -0.080301562260902098 0.04755778794243045 -0.15433817024423233 0.10169287419198721 0.13496573769468273 0.018967537873492424 0.031964318557667716 -0.12390721411554083 0.061688483538286203 0.12866612018185014 0.016284345444575993 0.062713827604644459 0.061409007335948722 0.032810809923826831 -0.093088395079869601 -0.10924306774326532 -0.15219224760454922 0.1254346906970592 0.032322637455065271 0.01104121885213032 0.036778900187023254 0.09159739287006359 0.070188101556861643 0.088580374710385101 -0.075194932770293973 0.057477563730565943 0.086785393809645353 -0.044981760080267774 -0.019897366048238944 0.064720488762268186 -0.16360779676660966 -0.0070605297950833814 -0.046083421523441595 -0.12191646132008667 -0.14006575982780542 0.13126979050140608 -0.14661772496140571 -0.11039247286222524 -0.12735468555835361 0.13666107843246339 0.081432842474664979 -0.14755181281229643 0.14563566120047841 -0.10563898349302089 -0.11028759542174946 -0.11339176816457835 0.16275038373201905 0.039078763651869734 -0.028820030104191863 -0.057804985578384427 -0.057025501281647781 0.018829767332176929 -0.12053480276355026 -0.019741216004821104 0.07704754069975113 -0.1263346171113221 0.087980601906716166 0.015975294848893987 0.0038164652724539914 0.04515232080401553 -0.002218323588707936 0.038517637668578075 0.064723704093643239 -0.099416623854548553 -0.058110818420422441 -0.081024897484518701 0.11284262127356748 0.084218995921596637 -0.11366779675903904 0.13595598737656317 -0.049090339173657009 -0.08213062292768368;0.088709513030607756 -0.094373710523923154 -0.036085228010841124 0.025899253253159612 -0.074595140746923777 -0.00069352899863724192 -0.034132694349900482 -0.13663897282245752 -0.12275453769270368 -0.087127609279549517 0.0056501803848477269 0.14496802502776371 -0.072037122403687898 -0.099945874504420926 0.13256165421189492 -0.09062454978440633 -0.15651951139362733 0.050772645268410001 -0.15272977717865602 -0.01352699977556625 0.12300062229398748 0.010988026870544629 -0.026233824162600693 0.062039300854300129 0.094547007148604409 0.027331023941424174 0.015725008327361342 -0.16022969420444552 -0.12660221796180082 -0.0063730820632823303 -0.14788973870505745 -0.044044801525070371 0.1086425052711379 0.012240880030629604 0.00508432300338059 -0.13307307456198594 0.15364914961449808 0.13748550506966126 0.09617957992892695 -0.1148194770789963 -0.11784467530412178 0.16111496963927882 -0.015711486979541795 0.018824974895943081 0.15040182514391753 -0.098707907427624073 -0.00018572330635759933 0.078967262259458618 0.033180740413519906 0.10885459297691831 0.015164454253213989 -0.13046042804782851 -0.043405721728150118 0.003787812968433528 0.16047624202857996 -0.16260943816185686 0.0077941771921213199 -0.13341167239356522 0.0066492191151443138 0.11597402812742204 -0.10280356560431167 -0.053245336557220649 0.11931173751702207 0.020326828127577697 0.048315123522161961 -0.11504921688141283 0.018638711292443089 -0.15449060180637497 -0.052830765256610554 -0.041533021518784526 -0.003501918806111138 0.11007942215410584 0.13326512289441481 0.0054730124440972201 0.025726310698282684 -0.020057511008475394 0.14916260552858507 0.16414890324834333 -0.13803182994756599 -0.13043404956878754 0.01654016797109081 0.045123470000384393 -0.083405106834849377 -0.13668341702651157 -0.010393064608568599 0.098286189804345739 -0.010338948874494385 0.15127619069992934 0.10415691763953382 0.16188499733379547 -0.066285260366071852 0.022710843350365013 0.086192907861239218 0.023248820633395898 0.099260397435821837 0.10564466603061083 -0.10645400520927466 -0.010263920299631371 0.14084149144132785 0.12563003646794368 -0.025630983464403696 -0.00041153493810542447 -0.040136009021210443 -0.16112641037782074 -0.062183394555873295 -0.12102148349920823 0.1587111570145506 0.152619322914094 0.11699324514627807 0.022992238855647586 0.048584295646875733 -0.095209846783515309 -0.15029710785364928 -0.16668404402743453 -0.002207089748072624 0.01814456851074871 0.12853594726187001 0.020064061078903267 -0.026962040972146991 -0.12961728323815366 -0.12337674055130808 0.10525987061916456 0.1001955984554886 -0.1103773607293875 0.041909385060259631 -0.16020777979562978 -0.099215941856180948 0.058700190427672792 -0.041525783262387386 0.1236745299067596 -0.0066232736681109952 -0.060866097916681981 0.04433726122488274 0.070417056411705647 -0.08974130051336722 -0.15130781370322502 0.024771707575558785 -0.028371272388983772 -0.01455189153992837 0.0538472104433853 -0.13881141430688063 -0.12494901899234355 -0.14727649433199927 0.059757565263084664 -0.038277708533680385 -0.051085059204118599 -0.036877530821433836 0.041389354752800839 -0.070382250642741936 0.10284283834100262 0.017540000691838042 -0.041208905304635113 0.13122968028256968 0.013411674251766238 0.047715186097671371 -0.15152178300979305 0.026271980787658872 -0.017725296968296979 -0.068321437512764427 0.14433903212958626 0.058519148541650239 -0.11670547342795802 0.079160834536034078 -0.11765183428386206 0.13920145844946355 0.1087171099104768 -0.045657957283950674 0.13136807567529321 -0.14614856551887326 0.023444370977765274 -0.16541954009057977 0.12442425706149929 0.14478048419621348 0.12458773916308347 0.009371973039877338 0.15197800480102233 0.041785712616271752 0.13022047971629139 0.041810858669361121 0.067752014303403052 0.13616125454784114 0.0060568212093488061 0.10691342215431247 -0.071857223906208828 -0.0079535039168974683 0.13087777387399221 -0.11801833482301712 -0.15416599278566825 -0.066276741000745126 0.084049965493379966 -0.11678369832944557 -0.060691721197092381 0.00099478799443780143 -0.068100573326218175 -0.019049691281016554 0.014193376024131853 -0.15393656692278043 -0.065538426507080139 -0.051750306275234394 0.075433947054497685 0.079744936108948922 0.10819558312851195 -0.083035412017283261 -0.0025610165502065836 0.13146829376641664 0.12618345972925629 -0.1183464551358635 0.15146568315313899 0.058828798685120622 -0.12756002516590159 -0.16640231845298886 -0.06138422288656481 -0.055595338985474509 -0.021405369911349899 0.0066084889562476644 -0.05874546368834508 -0.093254001900406669 0.077726534833985589 -0.069213764323679969;0.15267324648050018 0.13520904166334252 -0.0039398689408517351 -0.031865542443256206 -0.11985120999727751 0.1076622315268833 0.025818504805098168 0.1013471242207479 -0.048910323085528139 -0.035869127393765132 0.033770273962786028 0.057196338970486656 -0.11954675610990692 0.066859037932798404 0.13770312922356745 0.16640958592523197 0.093368284878790231 0.050727785993704914 -0.020416824456991538 -0.035118458122726688 0.058773830636722896 0.07126504414345855 -0.071615591716361268 -0.0764285822480507 0.11398234098665197 0.097907249200854224 0.13438730423727427 0.1314140547053044 -0.034674195347943068 -0.08941013061501292 0.12169387125638419 -0.12047551364059157 0.05285608299444141 -0.0067778687186600467 0.033673216146079765 -0.022962107841735239 0.056082976034765683 0.04417608937301977 -0.024546980229267854 0.082327837787365923 0.058219985137041852 -0.00049391999546847187 -0.013294367786663616 0.039480118262950011 -0.13051256189971658 -0.1482198833897406 0.1321574144409321 0.034925148586800153 0.052346757605475094 -0.16560691023811577 -0.092962308443606895 0.1013769742827417 0.085089322880192789 -0.024815374801889101 -0.022702732432726722 -0.072655295863720382 -0.14561606622101492 0.041894561978261149 0.11831256161597374 0.11132185700810214 0.051503646418825724 -0.011568966953290499 0.052414071489682558 0.1427546810483985 0.033276466540467307 -0.042056444477141762 -0.067385761171411929 -0.099402706973802532 -0.090402661808581544 -0.031833037658565967 0.096118512375736501 -0.0065327535820091862 -0.025760972264581072 -0.095215128140302044 0.013322830147855607 0.15340761894621663 0.064785159330358624 -0.0037313031554227663 -0.032029156877140509 0.12991222778086398 -0.11979557586788302 0.06196816592061833 0.11523227545914974 0.12900057894822706 -0.15307975009189875 -0.15537512633724321 0.11492024430435971 -0.013136956627606592 -0.16748633954176811 0.12001476499606215 -0.097611642065178722 0.096449750373768628 -0.09985900514350024 0.12948058485809866 -0.084265860190060965 0.1599497645007498 0.065249247032508811 -0.14325319274109652 -0.049244187382647332 0.090513897233044149 -0.085713434099654817 0.092552620349238085 0.06999095616167976 0.16416302517273113 -0.14896492960131019 -0.021227391660388052 0.15632267331669336 0.12221297749547474 0.11132651696749495 0.0866799534024459 0.051116567797074602 -0.024719216304748545 -0.15939852282810299 0.096997009963150152 0.073580153085024816 0.030037440058855388 0.10514490398957042 -0.06335933234087622 -0.081696266871517945 0.1519309813245911 0.049184311307982773 0.048308282292363572 0.079022108057031276 0.083940595754744579 0.071778417937924444 0.074572601662268895 -0.046173648158516781 -0.10202806044383336 0.15797559368515743 -0.15185838943192584 0.072628401069752019 0.048122442202326039 0.053639283677946181 -0.040385002569929808 -0.066374111172720171 -0.16151818327268955 -0.10402284353111277 0.075827226757868335 0.10159990827355614 -0.098299117280166576 0.012204173078377569 -0.018663086953259033 0.12850074946502582 -0.084229217188882141 0.078931138524889394 0.1361550097993269 0.10946152939838853 0.036971757487459719 -0.0096622751627377795 -0.074662554272745471 -0.12289997639420101 0.14032832017102204 -0.028942220218124447 -0.059041008091377467 -0.13281951466345196 -0.084175016313432313 0.0039081792131586083 -0.097534674793513021 0.044602058366801006 0.14733663739973218 -0.042993430814800969 -0.14981168547248516 0.045354853288622245 0.09445034299929711 0.053824564825557746 -0.086675864347929094 0.13898070194884901 -0.13056929466513725 0.04840118442099195 0.14613818692517003 0.010887795222802237 0.13614490689497119 0.14562552638595119 0.13278542134254889 0.079607359290644775 0.013050545655798012 -0.091300991123486025 0.15180672649897001 -0.10964508504672578 0.0096137358542052083 0.16485338119069662 -0.037476677658249302 0.056396173780174905 0.011024981150268823 -0.13555315866107551 -0.023139988415133702 -0.050967665085847554 -0.017017297786302465 -0.10175799588889967 -0.014577498475894506 -0.1454431685734347 -0.16484751168629788 0.1381471339263689 -0.13252617027292582 -0.085316699257436984 0.11497102356333064 -0.10322655822967791 0.13491075598287489 -0.10411251809109658 0.15417913727379798 0.16684664793990045 0.040359979122127645 -0.013018359066495748 -0.025032093813902121 -0.098121887271678643 0.013459753064285032 -0.14998084427286729 0.099437952581530459 -0.095159514411529519 -0.13246148271094813 -0.065901004686152329 -0.042431194491734839 0.017777607173820677 0.055068472783448855 0.11794616504337853 0.068440372709157579 -0.052168203862426731 -0.12069909151885751 -0.1220246379598571];
  
  % Layer 2
  b2 = [-0.43706165296345556;0.41346905157063502;0.95559221387036231;-0.60401955201887247;0.71210015443445984;-0.36823722957687122;0.16141305145549498;0.80368605835716866];
