function [Y,Xf,Af] = myNeuralNetworkFunction(X,~,~)
%MYNEURALNETWORKFUNCTION neural network simulation function.
%
% Generated by Neural Network Toolbox function genFunction, 13-Apr-2015 18:07:41.
% 
% [Y] = myNeuralNetworkFunction(X,~,~) takes these arguments:
% 
%   X = 1xTS cell, 1 inputs over TS timsteps
%   Each X{1,ts} = 256xQ matrix, input #1 at timestep ts.
% 
% and returns:
%   Y = 1xTS cell of 1 outputs over TS timesteps.
%   Each Y{1,ts} = 3xQ matrix, output #1 at timestep ts.
% 
% where Q is number of samples (or series) and TS is the number of timesteps.

%#ok<*RPMT0>

  % ===== NEURAL NETWORK CONSTANTS =====
  
  % Input 1
  x1_step1_remove = [3 6 7 8 10 11 13 14 15 16 17 18 19 20 21 22 23 25 26 73 97 108 109 125 130 135 136 141 166 167 178 179 191 198 214 226 233];
  x1_step1_keep = [1 2 4 5 9 12 24 27 28 29 30 31 32 33 34 35 36 37 38 39 40 41 42 43 44 45 46 47 48 49 50 51 52 53 54 55 56 57 58 59 60 61 62 63 64 65 66 67 68 69 70 71 72 74 75 76 77 78 79 80 81 82 83 84 85 86 87 88 89 90 91 92 93 94 95 96 98 99 100 101 102 103 104 105 106 107 110 111 112 113 114 115 116 117 118 119 120 121 122 123 124 126 127 128 129 131 132 133 134 137 138 139 140 142 143 144 145 146 147 148 149 150 151 152 153 154 155 156 157 158 159 160 161 162 163 164 165 168 169 170 171 172 173 174 175 176 177 180 181 182 183 184 185 186 187 188 189 190 192 193 194 195 196 197 199 200 201 202 203 204 205 206 207 208 209 210 211 212 213 215 216 217 218 219 220 221 222 223 224 225 227 228 229 230 231 232 234 235 236 237 238 239 240 241 242 243 244 245 246 247 248 249 250 251 252 253 254 255 256];
  x1_step2_xoffset = [0;0;0;0;0;0;0;0;0;0;0;0;0;0;0;0;0;0;0;0;0;0;0;0;0;0;0;0;0;0;0;0;0;0;0;0;0;0;0;0;0;0;0;0;0;0;0;0;0;0;0;0;0;0;0;0;0;0;0;0;0;0;0;0;0;0;0;0;0;0;0;0;0;0;0;0;0;0;0;0;0;0;0;0;0;0;0;0;0;0;0;0;0;0;0;0;0;0;0;0;0;0;0;0;0;0;0;0;0;0;0;0;0;0;0;0;0;0;0;0;0;0;0;0;0;0;0;0;0;0;0;0;0;0;0;0;0;0;0;0;0;0;0;0;0;0;0;0;0;0;0;0;0;0;0;0;0;0;0;0;0;0;0;0;0;0;0;0;0;0;0;0;0;0;0;0;0;0;0;0;0;0;0;0;0;0;0;0;0;0;0;0;0;0;0;0;0;0;0;0;0;0;0;0;0;0;0;0;0;0;0;0;0;0;0;0;0;0;0];
  x1_step2_gain = [1.60025604096655e-05;0.222222222222222;0.0625;0.25;0.25;0.25;0.00436681222707424;2;0.133333333333333;0.0377358490566038;1.60015361474702e-05;0.0625;0.0869565217391304;0.125;0.0714285714285714;0.0952380952380952;0.117647058823529;0.111111111111111;0.125;0.166666666666667;0.105263157894737;0.133333333333333;0.125;0.142857142857143;0.117647058823529;0.285714285714286;0.222222222222222;0.142857142857143;0.0625;1.60015361474702e-05;0.0625;0.25;0.142857142857143;0.133333333333333;0.25;0.285714285714286;0.105263157894737;0.285714285714286;0.25;0.166666666666667;0.153846153846154;0.25;0.285714285714286;0.166666666666667;0.25;0.2;0.2;0.333333333333333;0.285714285714286;2;0.153846153846154;0.222222222222222;0.25;1;0.142857142857143;0.4;1.60025604096655e-05;1;0.25;0.0625;0.25;0.5;0.285714285714286;0.25;0.4;0.222222222222222;0.25;0.0625;0.4;0.333333333333333;0.5;0.666666666666667;0.0833333333333333;0.333333333333333;0.25;0.25;0.0625;0.333333333333333;0.25;0.5;0.285714285714286;0.25;0.125;0.285714285714286;0.333333333333333;0.25;0.666666666666667;0.666666666666667;0.181818181818182;2;0.125;0.25;0.25;2;0.25;1;1;0.285714285714286;0.285714285714286;0.25;1;0.125;0.222222222222222;0.125;2;0.125;0.25;0.666666666666667;2;0.0625;0.25;0.222222222222222;0.125;0.25;0.03125;0.0227272727272727;0.0357142857142857;1.01094346298683e-05;0.125;0.125;0.05;0.0277777777777778;1.60005120163845e-05;1.01094346298683e-05;0.25;0.666666666666667;0.25;0.125;0.25;0.5;0.125;0.25;1;0.25;0.25;0.25;0.125;0.125;0.0625;0.25;0.111111111111111;0.0833333333333333;0.2;0.285714285714286;0.125;0.125;0.00433839479392625;0.25;1;0.0625;0.285714285714286;0.25;0.333333333333333;0.125;0.25;0.125;0.125;0.125;0.125;0.0625;0.2;1;0.25;1;0.125;0.666666666666667;0.125;0.25;0.125;2;0.25;0.222222222222222;2;0.05;0.5;0.0833333333333333;0.25;0.25;0.125;0.125;0.125;0.25;0.0454545454545455;0.0625;0.25;0.05;1.60025604096655e-05;0.0833333333333333;0.285714285714286;0.0625;0.25;0.125;0.05;0.0625;0.0625;0.25;0.125;0.0625;0.153846153846154;0.0625;0.0416666666666667;0.25;0.2;0.125;0.125;0.0625;0.125;0.133333333333333;0.125;0.0625;0.0625;0.1;0.0416666666666667;0.111111111111111;0.0833333333333333;0.0416666666666667;0.105263157894737;0.05;7.8496632494466e-06];
  x1_step2_ymin = -1;
  
  % Layer 1
  b1 = [-1.437619885506408;-1.0881189164389935;0.74667402856768006;-0.43818148087680409;-0.14908376831496625;-0.15352776106015489;-0.40011669260954436;-0.72077784508763632;1.1985389556334161;1.3797020508953519];
  IW1_1 = [0.056860647811651004 -0.11920069847143216 0.13968210136298076 0.056917960387901916 -0.038765201703604153 0.088641003037503677 0.068046546989403087 0.12953493404627656 0.098660914539907649 0.08576845796090847 0.040827188122925434 0.018658643068393595 -0.042275824914558092 0.098125952963613414 -0.091412829845218438 0.087070782318283982 -0.12313613487764914 -0.036385373926116162 -0.070985680935173504 0.089862486525181015 0.038751670387013867 -0.052979294094575954 -0.059473530700578515 0.090102940764694314 0.12354927550353392 0.017677403960550151 -0.062271864360129804 -0.077971738832594104 0.040446842485855797 0.1582400333470767 0.14495971574136066 0.14595374930077215 0.082115223138112245 -0.026539865718221842 -0.063549235540788243 -0.097496305331967417 -0.1091548673904366 -0.047184888893579531 0.11168196771176343 0.058179248091154413 0.029463573690520505 -0.16705368628211989 -0.026836074712012391 -0.044875963212961091 0.057498952985147546 0.13865005042135328 0.072096047261910587 0.013012291501630498 0.1196732598831329 0.075422305989985991 0.038344657295260043 -0.16457980870270184 0.13803141539821023 -0.054504015654170464 -0.10500860709001915 -0.1649699031976436 -0.026099042341955578 -0.17203178164379798 -0.067322148335949586 -0.10929809856785677 0.14980854411220043 0.090179575511476415 -0.043162871908264795 0.10613415182236678 -0.077980917109115519 0.10073028947655187 0.075800162557901077 0.00075700034658661257 -0.085437842749825008 -0.086002821329136517 0.13439331899376689 0.0087602197986456857 0.17416614973520977 0.078724781005152469 0.13625964989549816 0.071768888127355088 -0.096392484447094542 0.13172521053832609 0.12523159570540113 -0.13754370644113997 0.10815066236570582 0.01248101851472712 0.0256150531565278 0.094429586856344075 -0.014565866729566675 0.12977206498792929 -0.075337187147275428 0.13243667536786738 -0.0059813336545570233 -0.02692935871586238 -0.12233591417851013 0.12879898354910083 0.010401069274145278 0.058595223737551945 -0.054255548024696877 -0.077917947109246669 0.10574419058528724 -0.17052322379443038 0.0018065625042456607 0.043456213594987164 -0.15636587368048774 0.056794122682731082 -0.1026664449086228 -0.018903925116641171 0.14130465367202391 0.036591589653378949 0.096350727022708152 0.11739857198698449 -0.038287516982776805 0.16269865653952298 0.054763232264547573 -0.14809487172669109 -0.018918125238373121 -0.12727880870568389 -0.041048568078342493 -0.087134198321937126 0.1304878665324922 0.11642418204644985 -0.031773368508412753 0.13341505098857748 -0.044931848148634393 0.093225757255151545 0.1750996826918062 0.13642404937495262 -0.062673496442427895 0.11266762846467994 0.03900147484939645 -0.10064961999370005 0.021009355963123814 0.097652365689797446 0.077091101647457597 0.0078495024949886694 0.019412353959183278 0.12116465427528027 -0.058416035298955428 0.04521210562029488 0.1555070466284007 0.068527759923985104 0.12123177276863191 0.15522720349118008 -0.14608531088486904 -0.090139073002948836 -0.033183414548030019 -0.10820292347122844 0.088819668511747177 0.11026210305492461 -0.11915648930357706 0.067760893852102266 -0.15004030909816071 0.088928395726036169 0.034293951493229904 0.13946536216059219 -0.10355496590743006 -0.09191928989908002 -0.05534563502284176 0.029410302417109162 0.038143278846589357 0.12559968189556181 0.045923257648568187 -0.029247234294350742 0.065531714054535187 -0.04826099164556983 0.12884792593069466 0.083461904054860966 0.010206255523733894 0.12253964417352606 0.11731668530367566 -0.12148001156845539 0.045357918986950081 -0.15407610996957941 0.10242531347275967 0.04747075508404798 0.11434162138245467 -0.10139810458916257 -0.16952352504636478 -0.097649198962885778 0.039649315800105847 0.020335630897282311 -0.098232965706381847 0.13559280403538482 0.098347140039700881 0.0051831747026997929 0.17150972766897477 0.080598902539814887 0.13576581336542645 -0.044530086379982604 -0.11146583800121107 0.088219712722143698 0.001512059461109293 -0.018460257206076868 -0.12236899108225088 -0.0012602759811412652 -0.026525980189899469 -0.064472348868304108 0.16978397351514621 0.018941827638717445 -0.093300152589724974 -0.062864773972177115 -0.089479726086117026 0.06122680466160698 0.16801909183032662 -0.13041624564891852 0.09469006830413311 -0.15294002274401658 -0.10030557693950877 0.056995833711726354 0.16518236594551777 0.12171376557198585 0.079000162664086618 -0.041640405109145386 0.044729520258492694 -0.11843702645624522 -0.079542603384573168 -0.055848201462112647 -0.042573172364143382 0.024969109964291285 -0.090058317717310279 0.038458625184725086 0.073026822081815587;0.034607733957754391 -0.15658880461484348 -0.057959282661262407 -0.14546674704462295 0.082125120566093807 0.051454301419084261 -0.10474606519099676 -0.10267114246240498 0.10653347544630927 0.11691173388770722 0.017527707785395308 -0.082956075311868979 0.11640991251718005 -0.020591940862733814 0.12834378213114281 0.12350392365513792 0.09696094601543423 0.13168416024338628 0.036076665920871526 -0.059916087544673556 0.10198626332486359 0.088998697417920561 -0.12891934161556512 0.001626957223835893 0.18420034748680036 0.11199180086694689 -0.086227751602344041 -0.11249144871850376 -0.12657459731555198 -0.16465795394543614 0.11897958220517399 0.14089282731805905 0.15423332555536587 0.10433123701217288 -0.075287912964969575 0.093977890108172604 -0.066866333759042926 -0.084282101753933594 -0.12072086059527419 0.0052414938287020053 0.17393849796265967 -0.015658877353374168 0.10507770752040084 0.067268321136052189 0.13206507935822465 -0.09576280657466564 -0.0070259602832999004 0.15462578403791477 0.16192286174763185 0.048553870015651042 0.15418219144473722 0.13113886824409535 -0.039167443335911795 -0.12062335151254848 0.053528560984918629 -0.038988631910312967 0.08348988283281604 0.16285369454505022 -0.10919257844432435 -0.033651593922760688 0.0028998967538325566 -0.081211933579352621 -0.0050423039152525965 0.10524299342668804 0.1543626129923516 0.045026406631783318 -0.0047278806903211477 0.047898685506864359 0.15610404700572258 -0.015243787075981148 0.15252560703949386 -0.016530295225062806 0.12782707090553005 -0.066347018074573785 -0.071517065752807266 0.066810931520466757 -0.059922367911063215 0.067654578620171463 -0.076216852286963774 0.04916908910735332 0.032604452079418408 -0.11548040030474281 -0.044425496526299978 -0.1410382536055674 0.13336644078816087 0.055071977000576061 0.11205347927332233 0.14884367201436782 -0.017167279505956288 -0.026236836988490015 -0.17278976737408189 0.075311096195055008 -0.022216540965652235 0.037639671596817602 -0.038190952327795465 0.096195621819662194 0.087097795569019129 -0.12649578749619694 -0.042741304338240443 0.15890587530771821 -0.050931901082453164 -0.029320877685196339 0.04377588408656858 -0.12732541351985882 0.14425722117486051 0.12193651957753487 -0.017994323963490443 0.016163255286400762 -0.094896141449543711 -0.1389754157142899 0.0027386823918368643 0.036899899059007674 -0.14935024906074107 0.14858659607755684 0.037402127090128065 -0.14819180986106767 -0.16136496375008177 0.11854799933763731 -0.17687067459125816 0.033845067288460588 -0.045360575282349685 -0.048480986343228255 0.032207583604479791 0.081593117254353725 0.011828791260469819 0.094829303499665854 -0.13754506068681946 0.11120862256842155 -0.17338969473964888 0.13615896818961334 -0.16897358114285091 0.022069808526480189 0.0090964569564111388 -0.038046010676527256 -0.075733618693454713 -0.15943720044654688 0.00326177259761024 0.0071183116876408683 -0.063106774533551152 0.10432812200351191 -0.017941997536654396 -0.07180374464350775 -0.12862209844870071 0.0867674002891448 -0.14779657755584674 -0.034694372776176367 0.062098438697954741 0.095105718733512271 0.099745315158191641 0.04912272307355748 0.016686064477783591 0.15729954662976126 -0.10581102305831229 -0.092565657127204604 0.052310939077311346 -0.090463053190991294 -0.091444749613839235 -0.11918917388749757 0.073035341978739926 -0.012638339191530092 0.039718898559479347 0.182632969923259 0.14064207552911243 0.096915185688676672 -0.12312538371961641 0.15227372427661406 0.030881924945290237 0.059899435134783796 -0.031036844361048671 0.12933036943098991 0.14492530139884793 -0.035787476735663522 -0.061321320334596627 -0.070915566558667792 0.026605762118062353 0.054830712899809841 0.080649948211067232 0.044204928839295894 -0.13789853946744396 -0.021409444189818327 -0.023353657386826709 -0.013009022084256378 -0.15625443821657009 -0.17837159045633899 0.034685122892207286 0.14890635206268046 -0.0035305295934808857 -0.075154996251538639 -0.10263540301429762 0.054815296740365456 -0.027799895743011567 -0.040487656084002101 0.007434721892735279 0.10711685028659942 -0.15594290251630072 0.13605448764120362 -0.048543572426047447 0.14668478136187291 0.07787616182151523 0.10394226785113539 0.13287939608287505 -0.14973523317873003 -0.039281645489417254 -0.012912226151584274 -0.026123300627772017 0.12631134192497978 -0.051444826924543406 0.0013023839639308777 0.067746457417152572 0.060836924115664194 -0.06638347101581972 0.15769006988406498 -0.15121440023469901 0.018386870074282521 -0.078777572229449477 -0.0073344389596520128 -0.0093475821859767723 0.14909533691543517 -0.14735638447809554;-0.021977707241509513 0.083871636135746275 0.030810660291447065 0.16533195776521001 -0.095887149003375305 -0.10137181979038019 0.047567695472298721 0.17064282927832158 0.040108460189494904 0.05312283547674361 -0.058395611939666338 -0.11019465757953635 -0.0076219734376688992 -0.046728585812312533 -0.052223310250721779 -0.080132014218271097 -0.034676481093017977 0.11456232410088059 0.027372288655660507 -0.11269466416643709 -0.081174034651403354 0.12164526189159922 0.1514312778550829 -0.06487809811897699 0.1937879147546043 -0.066126259889094666 -0.065874299335998115 0.039497581746530203 -0.048575960758639833 -0.042560587149522738 0.042115209027774964 0.19508220212920674 -0.048040023395607555 -0.072319117981190228 0.20834997814328407 0.18175849225022783 0.017570548143501331 0.2072179094568761 0.19984477009293269 0.11828103161579057 -0.029771189440749069 0.20080174192690498 0.031561513183071419 -0.10808882538505754 0.18862375705396792 0.15980575262220104 -0.029611862300389608 0.18347501966850779 0.20705069812032947 0.18071488435524335 -0.056837705701007733 0.076319665758932925 -0.0301523768544361 0.023233045183237416 0.10423139884613644 0.025551143261987701 0.12891658176222739 -0.058444938279207034 0.09317798977143521 -0.055064516847802863 0.057707491351941455 0.12045845272186446 0.051793377185581933 0.038543751760206635 0.19734776784884353 -0.080586783804718717 -0.0064254425265030746 0.090279306440435386 -0.086945068759185007 0.2030174363551881 0.090724244235330209 -0.062006072896010678 -0.095876668738357637 0.036631452308331452 0.19323330122206653 -0.086917428810743158 0.11149676438166188 -0.074943684082159734 -0.010003401870727797 0.12797852119382133 0.11168615788859598 -0.028795433933241729 0.10481612579641887 -0.089621322982178536 0.16686055002596009 -0.0002763036255915602 0.11598247970000267 -0.062568588429960811 -0.073545375194352627 -0.0012602311550675939 -0.067391626042011502 0.11305382176649098 -0.14520740315807881 0.068310402745221571 0.0017198085194445754 -0.0046838551422651578 -0.072648197914891979 -0.10765511579360343 -0.034011127520713676 0.008998126001859081 -0.059072476519188476 -0.12983052355633379 0.046145542340994924 -0.0073907286571284168 0.067297870782417654 0.16376349737951043 0.083869178231804953 -0.11946494781430353 0.18549486349284386 -0.06451543803223074 0.088449538687665016 0.053001794623958452 0.18287045113488976 0.05779444791168032 -0.057245844340574656 0.12075203908730457 0.085244981008754675 -0.067197026274463598 -0.1055408190668989 0.15913194351770901 0.14861590124957205 0.069565042701700969 -0.024717791586093659 0.032245233017278913 0.042929887355646734 0.018884783467731436 0.021238509643347791 -0.17203363287161011 -0.044483246909555338 -0.11406987156373975 0.10244854820858088 -0.0070245683338572371 0.15288493555344762 0.10832000388853157 -0.016833166772909573 0.15793791212997177 -0.0096569710880654597 -0.0037432060572424124 0.12198726079796639 -0.09520484174746259 -0.039058509559841796 -0.02497609389499 0.049388590069375952 -0.088549679851778917 -0.094756905094742244 -0.14528168400844454 0.17726514617309927 0.026480508580080796 0.17151862856123948 0.11230501219285513 0.063946969199397824 0.14549699106333702 -0.034051101255335774 -0.080095881236147901 0.098314742828118792 -0.13302569603474845 -0.0032918899630201711 -0.06447701798825986 -0.11028467446966152 -0.03892957651326228 -0.10127118448818785 0.034473012702847271 0.14954712507985066 -0.091787911417727186 0.093275462228530018 0.021902271120039105 -0.063245287390484323 0.079374602972055522 -0.017497315208736368 -0.062857609153504759 0.131851154793726 0.10384435965725611 0.15934225460921764 -0.084042976559636592 0.092376779114429541 -0.016691329046053801 -0.078469901892906299 0.1283522344938996 -0.11494027989186049 -0.027865562541651036 -0.10802635102316557 0.13893272116703756 -0.056959009993007327 -0.096795953060107201 -0.02020398766498652 -0.010959568501043768 0.040523389871713972 -0.0086056654213966712 0.16334913928358682 -0.011855837819677592 0.005201139313250629 0.093806421235815743 -0.14186291026410286 -0.056062964269612665 -0.14778979388920538 -0.10738180114492285 -0.041382665320308792 -0.00085572076768277501 -0.11464452338992212 -0.091686619797640284 -0.024953237378965605 -0.06623065545481395 -0.056565859739707167 -0.050862537701771619 -0.081798486088776504 0.019342888759959251 0.034624177370204776 0.0014060898527100982 0.082952336521082581 -0.026307835404649153 0.12169300993235373 0.1470551886052156 0.053106966307499559 0.096828892473840217 -0.029118991699035184 0.010319824427915417 -0.13729807886497755 -0.078290570367042969 0.085720548139147618;0.063811862556601526 -0.17987906802891812 0.13569008199582638 -0.10644282870680877 -0.013943029830610213 0.051230237028112947 -0.032325612972049646 -0.10022142467379062 0.13103881852051033 0.1586784793702247 0.025884158861863956 -0.051066145237110352 -0.0011446665544534082 -0.062532057361549237 -0.17800965995550311 0.11095772253056849 0.14325352498598201 0.01377993993478676 0.030768860353689802 0.1196421901167512 -0.06585903898417271 0.077793737198730895 -0.1337985810900888 -0.083142686775114216 -0.11046006861913545 0.031363768489367817 -0.17838461505545561 -0.16422246574071947 0.1996412218153161 -0.068434826646389765 -0.16355127840812403 -0.009700536315127151 -0.025737666113226251 0.075459970804142518 0.078086313695309273 -0.082660229584542694 -0.029881311663008534 0.04309982429116891 -0.12766696290924662 0.067792425176679716 0.13996168390354399 -0.18097601734361662 -0.14154372654530345 -0.13723956262289183 0.1101693397532007 -0.044764151360645064 0.11538525476572724 -0.10535160615228611 -0.034442073394818869 0.082929332211629528 0.0501867251959228 0.16003979789994477 -0.12661000429219307 -0.034817336787539101 0.14823946303269572 -0.18135670158754591 0.15220798626923901 -0.086191577946188772 -0.032007642913602273 -0.10346035250133687 -0.044778687917563814 0.039123175006608633 -0.034716852338309463 -0.045161686949285074 0.085558602045978982 -0.15769685780571741 -0.067403757037552109 0.18629627602338855 -0.10512382116771973 -0.0085606929490526246 -0.088549957469256604 0.059136374367442783 -0.15243565130514111 0.050666436781060371 -0.057034922257372521 0.11576667948511056 0.096107513545162046 0.15893176357622024 -0.086815482360838206 -0.058152898047826716 -0.0020389991653580893 0.07463134198544713 0.16111365479491874 0.062761052510892645 -0.079214952449103732 0.18643227660824929 -0.14603676233820237 -0.13935333370516911 0.11800040245561874 0.1025806084275647 -0.12457702023750684 -0.13814462418227916 0.06219144406200279 -0.085192952395861138 0.084930168843463424 -0.050934117803370975 -0.055549218609596017 0.063929503446269215 -0.023109676800827473 0.12735467947221854 0.11914191776502819 0.065908233301412392 -0.13374414091322331 -0.076170329629032113 -0.1507934306547325 0.046288683477596418 -0.090135791808872129 0.03143064138416881 0.13048845296950712 0.11983104935019673 0.0498682555512601 -0.10564540021982972 0.05241080486931872 0.047013316998213164 0.10374839558636197 -0.070454737289695243 -0.024902954341104757 -0.089013668811563446 0.099487269438462769 -0.056579512708961714 0.045059665714906931 0.025192650682182953 0.024095679806718815 -0.088636581678348023 0.013442442269436822 -0.045008387038204929 -0.040668251706274729 0.032345603570641208 0.10119868221151153 -0.0077486809539437894 -0.06058266237301245 0.25948692422005165 0.099319106934189591 0.021750417957560705 0.12500361967798237 0.23991197581383547 0.12865173232879692 -0.041089320143071192 -0.013832786803121527 -0.086106971738196314 -0.11679798175830997 0.094153475939790524 0.039858454697758498 -0.10475487660586305 0.061420234447491652 0.19083242079052554 -0.11187452985363767 0.12625291348000936 0.018342515769192106 -0.09517254206905551 -0.12066613135483735 -0.026472066047742254 0.050302085131832396 0.10958678273584592 -0.14194569713569316 -0.10281451532443701 0.13970539040926352 -0.10950774288518579 -0.0087226882455874871 0.10551771316235312 -0.07455724168354369 -0.074025340835735656 0.015044464572956518 0.032186944011803005 -0.078574649499769431 -0.14529490807454201 0.18636710345194218 0.1970559731087663 -0.027281833082285236 -0.05682277079295605 0.13489469343598817 0.064196088910516313 -0.07497067060797287 0.069588249715223399 0.022145689902609653 -0.079428049466664166 -0.075730465404885178 -0.03208843658951218 -0.022932362869032052 -0.087051336845430455 0.014802710207485545 0.075744008152323322 0.15600951989495218 -0.14686947799613057 0.18419971012457662 0.1506288934334663 0.034765526144377272 0.194200030652773 -0.042952864050706162 -0.076381221144614361 0.0059062562512134835 -0.040544831251431872 0.17146797356918289 -0.062735418294791595 0.073277894764837523 0.15013303268246636 0.13825369700441031 0.003290984080220891 0.097733031655246869 0.029936229168460025 -0.027378060528528987 -0.034345926045322418 0.0655854562305421 0.24735576193258993 0.14217103659756267 0.11214081509979616 0.15432632774097196 -0.06677406375408404 0.00025699753285781659 0.14157987371387876 0.070024502134670055 0.073913719854715593 -0.043095864852770331 0.0073216436983292816 0.054520359524489373 0.10195302253103275 -0.029735277024261712 0.13195024076665135 -0.13637483536347927;0.10420374337516976 0.041657180876727103 0.12090452048949411 0.040107333904448483 0.088611508892539881 -0.076875035447409479 -0.021279330588850866 0.0086863524437871611 0.070205612270805628 -0.066395683477041112 -0.077749757148974974 0.070894729358771183 -0.014899102050264526 -0.10613350004249829 0.086223496013501308 -0.14534301264655172 -0.0028119665735118911 0.13009315295775467 -0.14582740309354383 0.027498688488505011 0.12815077656257043 -0.12234033754587685 0.16415786197236779 -0.06885351273745062 -0.026514191742195208 -0.014992824238300822 0.03262641130856047 0.17662636726484246 -0.062124032144827486 0.15107415809818131 0.095162630802643505 0.019754321395822495 0.059867147002346646 0.16933256195083488 0.061672853481036724 0.079693056242969337 0.17006781075138863 -0.071263225713436087 0.093282049094799077 0.0021067535872489676 -0.098700196798628334 -0.013292394219890197 0.061075261231881048 0.087839063021170158 0.028420905136673811 0.036745588543813455 0.10324068140216942 0.18244040501938866 -0.1249401361351886 0.12212848313914694 0.058674684319723419 0.010115990771690082 -0.034831066505559893 0.019085379218467528 -0.1076535669902675 0.053095915672157976 -0.15923628325168843 -0.12627847480491419 0.1117589386567532 -0.0017149051121902652 0.15842988276620104 -0.09417397622242242 0.12331732248213816 -0.0088555606705261001 0.15384199578165617 -0.018732012215972035 -0.14119835641702372 0.037292885520016042 -0.097816292725656909 0.10493150864821775 -0.018157735156659496 0.13890443005695322 -0.088382061914646246 0.12866419104172416 0.16455648435186751 -0.10741437697416649 -0.012856479139498746 0.037651869790131742 0.028205458983869888 -0.057733691847628131 0.050284794059276119 0.031494390363784916 0.11738005092665203 0.089708824914213517 -0.010000511798918869 -0.16099995722052882 0.10785787226768813 0.088215071458623548 0.13298823714690486 0.14017742951687354 -0.076104814845920243 0.023146142595423663 -0.098292550640793189 -0.045893652862402087 0.016011182300671178 0.062958961735260124 -0.023728610501328875 -0.084577435808649945 0.11262158153399708 0.073624304495725684 0.18359348949750118 0.11550362244626274 0.077454203097050991 0.077354876138608558 0.15067158110395992 -0.039555399727798979 -0.04638724467469979 -0.093094590688381343 0.034507690792954578 0.014194990617913543 0.045685384883000071 0.11939021470207938 -0.13231745685907939 0.16409491462104825 0.033217381603392236 -0.075986300181393601 -0.13121547365618333 0.071866038520401632 0.086064550220089214 0.094101663463409632 -0.14456612955282919 0.032782997930615565 -0.12304412396264615 0.146070481163037 0.058664333653577934 -0.11532305959031429 0.14224702645124984 0.019135237540748043 0.14000884812755685 0.15736374716529514 0.091776557489166147 -0.11414474193911478 0.14154470225286045 -0.13727226361308628 -0.067678613199106952 -0.14356774226655356 0.12598930402452826 -0.05555232423564016 -0.064799160511251966 0.053781626305777881 0.0093891884182277612 -0.089301393441720944 -0.018642013131108064 0.12103580255732731 -0.09534822592379337 0.059579034507237387 0.16909755639660884 0.050194255237141744 -0.07719814839855664 0.15262715976333657 0.059866459648952139 0.14776182470752744 0.098396065062572383 0.14651918521997323 -0.11984206925786381 0.10343219592181345 0.13122362171705571 -0.1383399954781358 0.11483785447029818 -0.0036669757493181677 0.1812880767846464 0.12752200474649045 -0.0066240622433050992 0.021304325065590348 -0.075850877110612835 0.12012130997898691 -0.021264249235370864 0.043690451799406102 0.089835403343646467 0.0012001063544721106 0.13555820122866202 -0.045520677223648942 0.17604878336165306 -0.028456798341766825 0.0090414432843025222 0.078595294522638109 -0.018186238345014833 0.08892617979101082 0.030427693618898247 -0.072792669200571383 0.00079918543052789458 0.05982029635339723 -0.037401305416190106 0.042803187139412044 -0.12250925385729003 -0.15694931356683434 0.13896140215179781 -0.1143503712943497 0.1210376223632645 0.10287332707084344 0.1265091270505643 0.1560714782082335 -0.14674589898320681 0.049977716440791069 -0.1235740715888894 0.12147502035650946 0.020073512535348566 0.050522199735900754 -0.11508857305663898 -0.15348691605796011 0.031959571136863096 0.12924764126423374 0.15314610761113925 0.035152212319623254 -0.097993337374905343 -0.064516279553531425 -0.02487711537600644 -0.062557889996390573 0.031033688205322048 -0.074656547965893716 0.057126297341079338 0.066055373879881626 0.14305404277150835 0.011135212937734038 -0.10911182574735662 -0.058890248163076912 -0.022967669808891988 -0.051624766129931644 -0.049380302963254345;-0.11068671081461254 0.18044386888195599 -0.1673765602760329 -0.058920546552974878 0.06010960322323522 0.15092731312767202 0.14820642632004563 0.10390946554859891 0.15278956444585676 -0.12203880084121699 0.074069344195921885 0.14977411453921782 -0.16373552796193155 0.12145079611847329 -0.058852609918160902 -0.036511075248471893 -0.10472330759856123 0.14164635464431721 -0.055439252299120327 0.087476343748990215 0.024587831714206015 0.040853550802328012 -0.13793603189143119 -0.10212346531026539 0.0058565553628141427 0.14645369420340801 -0.12797274636629599 0.011316359171499599 -0.14517122338485519 0.054644193439344957 0.087292097250032924 0.1093085435977651 0.1302690084940771 0.16140336357339896 0.078228763583937738 -0.079750969514631981 0.068076512980687245 0.045751700008120656 -0.1338138980063468 -0.089051036159883995 -0.079078135409730396 0.13891667947501524 0.058263036361554048 0.035167405235912906 0.055588504915863778 -0.037662148837184294 -0.014635911309734764 0.16044948213859078 0.052572557533507237 0.069779888930410428 0.13783059225221206 -0.01457540646098773 0.033095442778178656 0.1187355418191047 0.13952193701229232 0.12887727930167625 -0.16127788398282319 -0.11198257825918037 -0.027325144707000502 -0.10772707006185223 -0.14816123040493762 -0.033612916445253931 0.084173622558179895 -0.030875206362423094 -0.010796817327181962 0.080708130044801304 -0.079158134905207636 0.092495273449517218 -0.039628428516409013 0.042572156689487876 -0.062202236468072367 0.15013761930583014 -0.18717179765389927 -0.15770534646817227 0.11053985868315708 0.098135304740043158 -0.066700016055353056 -0.060427908060079319 0.11110792215655863 0.14947691413370837 0.055386404520375389 -0.17391642689174319 -0.13301152347434747 0.050261768411586201 -0.044061304251497048 0.049337525818283212 -0.12136093772529977 -0.10648682539728337 0.043266129977173703 -0.038432623888186114 0.042057571283196392 0.064865650935090585 0.11275351209902752 0.095599956996171978 0.10000396288718459 -0.06901635096175919 -0.0026388029605354892 -0.14476729457553661 -0.045751776649918537 0.027696113559585532 0.046859162015573712 -0.14385640420650006 0.098636360512545623 -0.11832187396076708 0.054002960426386061 9.8533452660233556e-05 -0.0011011696922569548 0.026074716970297628 0.013519617188404593 0.031747800858012959 0.060691552505144637 0.092244874094741539 -0.044686404120396712 -0.11849417328830478 -0.10448687557327635 -0.034999134533715982 -0.11829762782208625 0.057734498477124419 0.090699042031344559 -0.0027203629768746337 0.041638002231157496 -0.088399170365367333 0.016857857908617813 -0.12359189630599729 0.003546270010848656 -0.037073873762739303 -0.16901222172365399 0.0035281875167062706 -0.071712727754394176 -0.15480463911629838 -0.18478712262550215 -0.065217839900578722 0.090061689959925223 0.051854318091410473 0.13619734822079033 -0.069554223762573197 -0.051317573493090296 -0.201039225165977 -0.16448505054738272 0.076339978604461248 0.017235908276625012 -0.1267692851035595 0.13967390838157423 -0.040704153792245699 0.064591920346385126 -0.12464862798199321 0.053985785906407562 -0.16560225051066291 0.16265602688934269 -0.19226911044263847 -0.045361611357559957 -0.008021812547389099 0.073250969966748306 -0.16957979244836308 -0.051450805029736389 -0.19771292594341053 0.008891325663419547 -0.029164830613045381 -0.20753130777049975 -0.21907041408374323 0.12103248094924343 -0.12458167210750655 -0.072382870711740765 -0.1227479356667525 0.065294576262730261 -0.048635852579683392 -0.17595542067788322 -0.1284964899454272 0.011618715520888381 -0.073494413097844685 -0.12645947937071944 0.033987547261087644 0.0068003879590673322 0.091319137940392939 -0.12202503050021855 0.038562175608739334 -0.10621549408101595 0.043784329780058584 -0.13661828190611999 0.043392816614128984 -0.019801073943501002 0.12424179014286758 -0.09592281277299558 -0.097644335977983665 -0.18049106622712205 -0.082852557717751227 0.054465001401710775 0.017728068097127091 0.095985858141779248 -0.048360607881766327 -0.050394738265079675 -0.059626116176180681 -0.12541742566211711 -0.047884320775191093 0.10602579111795617 0.15953897758107149 -0.099413326348539721 -0.17338689144577157 -0.052071303722903674 -0.11672698652752855 -0.085777738817649149 0.066246948938042227 0.1453989919125705 -0.047598294843564135 -0.13289088186035694 -0.12164840906132472 -0.17071204599244186 -0.10980069671321227 0.030507255106988873 -0.09593592077561984 0.13577967854989542 0.11962303598559766 -0.03077063774890491 0.058109448335914742 0.09339375739623515 -0.14610022154340963 0.089606034809870547 -0.062708476765721652 -0.00023135625840934313;-0.16775387574685485 -0.15339059686289805 0.067923821954205849 0.079435201336574432 -0.083755989105551182 -0.096938874909632225 -0.11898656863483566 -0.088849260706541103 0.07867500605556621 0.048182615279658184 -0.12687826772605953 -0.1476877439065791 0.093963942646121346 0.12091773668188677 0.17662369831204883 -0.041469435731122543 0.030889061922867906 0.059539891031882501 -0.11657555609365663 0.032368264357366637 -0.0079123777686285843 0.0022525310085906936 -0.098425504305471187 -0.016273389364050001 0.012325174411277 -0.062520782579498779 0.035076369955256953 -0.064805524065662798 -0.15544044244073119 0.046298576246105831 0.097596104284378496 0.04303672972672129 0.17463410590982353 0.020408289765847982 0.083083429781966381 0.12941963031772646 0.17693210652419766 0.15487246074439923 0.1653588269639196 0.12832672149020732 0.18165607916275517 0.17378733339773159 -0.086246305604874993 0.15442099412300803 -0.086824999948957385 -0.10587789877698965 -0.10449779888057899 0.14088344335979136 0.14623603678662295 -0.074976585373357649 0.0095279162497675044 0.084012048059206451 -0.09059849050847589 -0.069096171813456231 0.16369548150851965 0.17518354183985774 0.030753716560182925 -0.11409544860940921 0.072955570094454927 -0.079689986427687404 0.11996729606719329 -0.058262356549503486 0.16323951164815745 0.22244090573086067 0.14513562549414039 -0.12344820526153498 0.18187643552932364 0.037485466575369851 0.075407265038787807 -0.028869170053980767 0.08942517817125302 0.16257270457313711 0.0020683017803074053 0.14548324573080895 -0.06669148670524333 -0.0072093790409550416 0.039876418704813933 -0.02517429528655216 0.067568483975897722 -0.098976512868094738 -0.07928234878453487 0.16749577190806722 0.015270925058871352 0.17489401977526065 0.091293675330006749 0.19794015150933608 -0.043884813560684695 -0.12760169343868555 -0.031799900799669829 -0.0055721756520202385 -0.059318240955987464 0.12748221520661332 0.066986601380074326 0.18450936143127189 -0.022332612972716732 0.13812732845373268 -0.039913725725456754 -0.0094890359200453453 -0.13851615392782921 -0.01237724559001579 0.10288909983256884 0.097347873514277372 0.10489736747047311 0.010332568203854588 -0.062467049111257118 0.073310547349916377 -0.046324646112568972 -0.13732160216451783 -0.10272666643391937 0.029959781584130249 0.16744509013021094 -0.11072557366983904 0.038570370813837775 -0.026141997180819308 0.077273792814017667 -0.13929302399865948 -0.014838404234878037 0.064705309984235515 -0.13242522159645867 -0.15802382754101407 -0.16471587211191796 0.010836627299990385 -0.13977671625883412 -0.061503777983992307 0.079654119932217979 -0.12005388162153224 0.096826029043894465 -0.091476468285827117 -0.010207864180627507 -0.018485550049348296 0.022103051577631677 0.13172943844669133 -0.082167071228192931 0.054871836143208279 0.074021155163449828 0.056762208973130536 -0.043459360761876675 0.05313508171712919 -0.13012275338140944 -0.095346071553492104 0.11055354583055234 -0.10659841236843166 0.0061466617986822812 -0.096398488795515311 -0.043754823185274565 -0.19298214611931588 -0.026199394625819661 0.14371882308989695 -0.13798989331027062 0.14065942103459977 -0.019235349747429912 0.03274724461925077 -0.093572370961816809 -0.06385101245928998 -0.083839348116069731 -0.093383712622960052 0.012036090086207702 -0.14552221260003839 0.076038831305578106 0.032080489466447322 0.055042199353831832 -0.097814381072839435 -0.19104011959761946 0.026633797063115455 -0.026334488743595064 -0.099000699115525045 0.066310863293681702 0.088462377737859851 0.023686363412354174 0.095881941906581211 0.19238912583632736 0.1058628332983642 0.12952022860475568 0.10670245975821238 -0.05382821599607103 -0.20188996450885172 -0.12452591065814225 -0.10351109375902159 -0.014126134529770143 0.063140084101223584 0.141064192981635 0.011924897500320018 -0.039941490667712048 -0.026442775670849135 0.027261676622023466 -0.043522747031049643 -0.16713804261525475 -0.0026889060987248204 -0.12157097741125741 0.062030873579069445 0.13871106583074813 0.053370387523181712 0.011269391351583686 0.10632902616342409 -0.079468101218026818 0.16240893666728992 0.070996566537694983 0.059835991243221129 -0.047900409499500612 0.12626516930089721 0.023442327418786074 0.098825538425801648 0.024954436299660942 -0.045303955152310692 -0.022782194384075787 -0.034366801511598946 0.069872910321835069 -0.10642354310494555 0.037195192598514004 0.002770728146544213 0.1462667635140163 -0.12606287119915657 -0.015313450749189134 0.078939087831014207 -0.06190259614140451 -0.014987553865642565 0.22283155805097302 0.017184627458419827 -0.092432772388063245;-0.11033441556786928 -0.13933793811149012 -0.13166262429425984 -0.035793755559416274 0.081765927784217915 -0.096356071675900282 0.069115759395899062 -0.048217026871934236 -0.022896956790263778 0.078048922528038703 -0.16899509271051258 -0.12604272330642974 -0.0082763350964206225 -0.011883571780426387 0.15240461557589538 0.013609197325086786 -0.010130407611294469 -0.046651898892613682 -0.071688553544577149 0.062558962157547068 -0.122726644502007 0.12520565480794055 -0.0019188850642205559 0.016079555474602252 0.031584883129031217 0.17101722374718287 0.17388179315484806 -0.067393551899111198 0.081073874480188227 0.041541268478233785 -0.14974618215825544 -0.14987951073994388 -0.094168036782934061 -0.1360688757437428 0.08009411109776611 -0.1228775011612344 -0.13548813978933591 0.12806670815147211 0.069321776365653925 0.078535963812638165 0.012424003599177164 0.063833569430043202 -0.12782034825278604 -0.1326746243001545 -0.053904462541688312 0.14513371648376358 0.080671398159767788 0.1652845707246923 0.087578082477530017 0.063082409487619229 -0.10362370067075205 -0.078191887024272183 -0.057880320654377808 0.09500784432819212 -0.1141354515089426 0.16042599807465127 0.10880985995010706 0.16466307834592531 0.10497536830079929 -0.19410160398115933 -0.11032779818033031 0.12098276180350245 0.13128320047650105 -0.043706265655989826 0.065924326853822088 0.043975012014542326 0.10907390220307235 -0.20233630202176306 -0.032069644250691344 0.13947818848524368 0.035318555556024062 -0.072055449809925454 -0.10699046729622327 0.035040194046510188 0.11829431880071067 -0.035146097699654662 0.074046861810232636 0.066119160833534751 0.045992516789849371 0.052003755591737415 0.076450877238817688 -0.04442302160391267 -0.15334997038087841 0.085681747288863491 -0.028690389753800904 -0.11107430909716622 -0.06472334736307761 -0.077869590841608438 0.17713409290929041 0.15020677620642006 -0.059101498958744461 0.11314267794076624 -0.10598392225148619 -0.042325911761120862 0.11326441408160505 -0.089343844593512745 -0.054447898550951411 -0.12527899079116916 -0.13796032608772082 0.20727174372345281 -0.064236782233291323 -0.043953439643957329 0.066186910032031337 0.05501765490997966 -0.062486266127731081 0.028506371287399589 0.010042893423441767 0.056098731122599936 -0.074608057131879957 -0.14178575100052454 -0.1165396856688936 0.058344527486518132 -0.16720891653946626 -0.016510671359659529 -0.11034628869456566 -0.02539951054312142 -0.030186435526089246 -0.22588442499891312 -0.15234105529502878 0.10832660423049252 -0.029292789866359841 0.014585117045946163 0.066169890455596778 -0.071565769121618758 -0.045629162439244211 -0.062347667921726767 0.0062307363893652472 0.092350893590241234 -0.07521159090842662 0.076465566862685436 -0.058448558635956722 0.21673891256075867 -0.10560083681375856 0.11924025525240643 0.13766093773107366 0.20336517156375145 0.015539012422906423 0.011832899675967476 0.051068062742945369 0.19469619370313174 -0.10571203298969345 -0.085704640711872074 0.092446219268780327 0.18292021554025184 0.12791107914655026 0.11000578355716426 -0.075022322444499231 -0.024035483226266387 0.069863767689311879 0.033252733720275776 -0.027402481047418169 -0.085412443456399617 0.096464742075830973 0.19985210039310797 -0.11917673118240067 -0.077123421382940094 0.099820260657064869 0.098708775504414759 -0.081219491410130476 0.22943910609114593 0.14185689359395087 0.17774320925771733 0.19453549736633588 -0.0087091225908995599 0.049407944770268594 0.17860337659409098 0.0034200247756559702 0.16937218836477139 -0.00075839456826864798 0.040616118369640714 -0.094449538942379591 0.24245596672329292 -0.11430202640274369 -0.058437944520333088 -0.016222292292449061 -0.018070370002363955 -0.11909762858945415 0.05606612646973063 0.10468305169148037 0.10644134898020055 0.18210731711167025 0.046577024484637165 0.18492605738152113 -0.089131313485219854 -0.039894872145129726 -0.01749103037720573 -0.064194274568892554 0.11864140938452866 0.032284233841024294 0.063313571466600951 0.026986477593245229 -0.21062953619599484 0.1985013576246758 -0.047296019239932839 -0.070302779896810372 -0.03549671359791446 0.032098816349644906 -0.067137699773977044 0.075867041848248384 -0.077265347782152535 0.03340421874304364 0.082630771747615891 0.046707579140113316 -0.0084610973970702733 -0.098228830256771468 0.025068913742608973 0.030163415467093342 0.17810230336108773 0.074733734012935774 0.195077243833749 -0.10218787184971227 0.14736833156983939 -0.16546134984254621 0.1497105057795908 0.082834326494144767 -0.015542237620937474 0.032908158283447335 0.053030693400654992 0.068587117417082968;-0.014693461524676866 -0.22508855370284203 -0.01688889331865202 -0.13707785207314988 -0.15648664674578239 -0.19373121865490603 0.049033196798731096 -0.13692919533070302 0.044812243133194492 0.078607553302483271 -0.15977738470101732 -0.086914742079502894 -0.050071645305954621 -0.12387635075454129 0.05989326683379969 0.12402217087783637 -0.12785922529865001 0.07561276993451238 0.0638895506767405 -0.086454597159493718 0.11712752543190588 0.15553165730962182 0.095121150525346393 0.01928124181242628 0.011501864898597346 -0.15005085880855157 -0.096733367492278038 -0.034453220892888117 0.081825802837319259 -0.15924453936432978 -0.14466329940806624 -0.1509894513722588 0.020103702335573504 0.029178670272366643 0.056990915386844143 0.030398703284535155 -0.11768647302018181 0.081844387919342537 0.15139281786834435 0.036654368657653355 -0.061721381899493936 -0.00038785987668122929 -0.021087163404864381 -0.087503178433972983 0.11324059498023348 0.0018255838350765238 0.15336041041689955 0.13637154717950986 0.051630751603261776 0.017451649686343149 -0.034603454942115822 0.14313995723771394 -0.017534119730879854 0.07409030797702254 -0.019015237811081862 -0.0012542595161446355 -0.066100027774966902 -0.094098655539387815 0.19966594070048679 -0.00900534673927199 0.042028768695065999 0.11816332867778903 0.062078642585865151 0.012132663143969859 -0.068742642697163625 -0.024844108399590451 0.080836937968649047 -0.091617309224241897 0.15329248895260522 -0.066861881661415101 -0.093943396072117019 -0.011016335315258936 -0.16137760902053089 0.11177551104206876 -0.11279307476839462 0.13612416393834684 0.10571276459075771 0.077231576220980286 0.071052253217887107 -0.0042567040122196836 0.030966962967021217 0.14756632600956163 0.01058282974656862 -0.10250246172868141 0.077461405406284378 0.061678277205764895 -0.13033724354546225 -0.083046522106265314 -0.031075676056222884 0.10581538013202269 -0.055513145668597066 0.11834453667454195 0.027810910529000133 0.12971294407528508 -0.13120509518772522 0.026584919033050523 0.11060170363606345 -0.074384425785354785 0.073327290428705977 0.19535693141060803 0.020052488481517295 0.1174268990265309 0.12887490198178145 -0.062554248135845578 -0.049387273215541552 0.14762804574118321 -0.088236778655200909 0.11144018634058858 -0.10017533450127897 -0.023717112353460305 -0.081580555160652379 -0.13581876065585047 -0.0062489241278421486 0.030098809272285781 0.16224585293380364 -0.056129406905990983 -0.14992846916134708 -0.12037710608084072 0.12108347284998719 -0.00094793847527195791 0.081401180739103338 0.024017266353508822 0.047483479935055348 0.066957291394541207 -0.098170429774352516 -0.056070533944994443 0.19530612299746267 -0.044378730145952026 0.021038267543488851 0.015434840848050475 0.041719048724353724 0.1860049387555224 0.1007204577742975 0.14963546308235975 -0.095765181892952606 0.23628304649530366 -0.080006392774782539 0.0013514987745773346 0.11702974526667159 0.063010075221857087 -0.16057626818891235 0.1837823081550489 0.13156213121986293 -0.073487117030224564 0.23544014990991227 0.1730141463444968 -0.1411534897047102 0.14036103782049009 0.11086495864413157 0.15263246089976926 0.12352966921649311 0.15471730279432855 -0.12851996304421182 0.064218125018707786 0.057771863091820017 -0.13111531906307713 -0.096850819447398373 0.13966845695820948 0.11661308613549012 0.10295087475596161 0.14758906575026989 0.10635971594539839 0.04047122455596884 -0.053099132237215019 0.087910006903957408 -0.15312472772488323 -0.082358947669923147 -0.010577425714890176 0.097335352006457154 0.074016049443890924 0.095876014124306685 0.068618080708037127 -0.081656175119389163 -0.14415349820557058 -0.04052525768673676 -0.032846411746244294 -0.16127529156000123 -0.023500882988554728 -0.022669829372595724 -0.054517744900691001 0.18792657333261686 0.039279263805068819 0.090009133761520421 0.028327346283599907 0.1042695769079322 0.078419907027641456 -0.22882093059531666 0.038939060388181158 -0.019487405780855286 -0.10976360709479664 -0.090930878940791687 0.038627467208626851 -0.018729606930747787 -0.074697642526036362 0.096547737985220067 -0.11556698819641825 0.076546750712691486 0.22966120370941243 0.096474891456709261 0.16414334943186265 -0.074070547670702078 0.098927020878297051 -0.089825705879445439 0.090037379493837708 0.025986423725389618 0.18345894060571719 -0.034184254415730891 0.052208925932594213 0.19786875838929144 0.031149270462521309 -0.051381826332706243 0.10103276000102436 0.1264895277393715 -0.029162265233050197 0.15030056675629266 0.033754441487833214 0.23437002977231899 0.080253349098035651 0.062608300965234231;0.02131470585300695 -0.10366621443788862 -0.097751864212761122 -0.07935412936467566 0.18202611194630886 0.090340862151321977 -0.074741233486337474 -0.13067477541590686 0.0049416453116013894 0.10020160189088217 0.060520760687628773 -0.13473350333283629 -0.11227734103722982 0.10744382611777616 -0.011444884048424829 0.0070624734108342283 0.077802240867811526 0.13392775597222178 -0.021247013611645233 0.13016180737206273 0.13956283882774659 0.039689888691430322 -0.12546737500644131 0.0078707348388574825 -0.1592822564269748 0.031072360836097403 0.15243868857169285 -0.16587350361877837 0.18619742872496628 -0.089801822544290325 0.025182735392883893 0.073654109737313761 -0.12462115770355243 0.058768077054633348 -0.10097650415407897 0.039902687076439097 0.13568756472992635 -0.13644543446963653 -0.17071231196492145 -0.13412759515504938 -0.085546021239718398 0.078141671056329409 0.011126994113641693 0.038009770343829116 -0.050199957884140591 -0.15812865540758309 -0.080233016014515199 0.079853099700614508 0.090195210592821096 0.14666288562736995 -0.17427382151816875 -0.0027104224121345054 0.038498773879374157 0.11433749350531539 0.0089246119172086014 -0.065386441989851815 -0.054386239998821438 0.05012053756899755 -0.12083355325369391 0.023691237877917517 -0.047484119756994903 0.095656192642387144 0.0023658676687271689 -0.11581426213880834 -0.13233907302362966 -0.0079332188421635183 0.026101580772074511 0.11700228157331488 -0.029641032258911605 0.015210531470852294 -0.040725688470174493 -0.11920873807502826 -0.076171082391426337 0.13151197575976739 0.050001208285173529 -0.094800301722631791 0.10446400405626939 -0.067860442519917949 -0.045827283183188995 -0.13514615915879197 -0.11482952132437621 0.020155599919836956 0.096519655620832479 -0.17222694611021899 -0.16382727984432813 -0.022540611950864663 0.15603016199561845 -0.058300205429332501 0.021783539568868582 -0.057782270532938891 -0.044702528058495852 -0.15339417357005211 0.024519358409527191 0.13139380760799324 -0.068886140745326674 -0.15586380320771881 0.032139631959467112 -0.16084193328199017 0.037976865240119603 0.069864642740806407 -0.11580964430155911 -0.071923947165733831 0.14378523998998358 -0.09030395041776404 -0.13450141908403118 0.20342846804836986 -0.12663681239143135 0.09321725422166606 -0.013614752465046674 0.21659103866943649 -0.091635282625924935 -0.094256919089959479 0.17695283108028281 0.13829706330822525 -0.015956847703588291 0.22048046541898145 -0.030708101528703329 0.13508568853502512 -0.011696822583507979 0.03462104683532613 0.039863039003226429 -0.10537701006452926 0.13765229500382539 0.15097628996835633 0.19185645342194135 -0.065342384954957769 0.12422558014353578 0.018875313318357633 0.17711244386001743 -0.10981128522449281 0.042402689894058376 0.15680470779643763 0.048480293139509564 0.10373245256375696 0.041249432607001986 0.1975547744254324 0.016371547779568389 -0.0019788559191629548 0.15246448531861748 -0.041662153903923582 0.02869310260265295 -0.025878883415431323 0.0793650708489025 0.021971565428008356 0.19280330393196532 0.050230372434773352 0.044157015937499343 0.095097248983347246 -0.073480579450658501 0.080632988402429218 -0.015457716858422373 0.10424143543292312 -0.031771745337890914 0.20460988586447504 0.020776249107265003 0.072485533384397116 0.094795595328689544 0.090603038001717415 0.028868879844519142 -0.056223942744652734 -0.043538858434496695 0.13411708949236215 -0.01347853797425709 0.098024060268571564 -0.079226704612557167 -0.1579051413226592 0.076381097786809682 0.15494730263304637 0.058269817486692098 0.12621048564614479 -0.078513777565536499 -0.0716085277131632 0.15629014509364408 -0.019520243529962705 -0.0094379072208498078 0.064497808390967831 0.033381148189903252 0.053411470707130329 0.12904531349850137 0.14005397339804984 0.18044488102090514 0.02066043637370276 0.028572977226118096 -0.061280106577096247 0.091636285630815245 -0.10726890827694251 0.0015074490675667325 0.018299066560254248 -0.12139255650783594 0.19594391707991352 0.034730682053410719 0.115998109766816 0.05866627595687654 0.091110505827063551 0.17431032994761506 -0.15251071692612214 -0.083855830426650471 0.20345806878326406 0.041248652249530816 0.096121129425248669 0.19288266675378038 0.079278499970222557 0.13741487151992951 -0.054185109962198663 0.016703366239182199 0.080422604783402699 0.072144923364035968 0.12570718518652016 -0.051041323609954968 0.096884009565868234 0.070547818881359928 0.027671928383719294 0.10400724640844559 -0.062499378489851043 0.19251346540209965 -0.0082167916272462074 -0.078818884204145512 0.09492493353098308 -0.11871091639676422];
  
  % Layer 2
  b2 = [0.49418986248211955;0.68121536836891061;0.30156770360681145];
  LW2_1 = [-0.28123547077899591 -0.77874260210249269 -0.78499044639714677 2.0666439193041799 -0.68012467429879264 -2.0822259150858251 0.053582693137372614 0.4764351172279867 1.8763934915682936 1.5831789109499326;-0.17576223746280992 2.2569233554947226 1.6674942895083922 0.38288340519862685 1.1098819816404493 1.1820122770832353 0.91772512258726546 1.2782798873941923 1.3150935509442565 -1.3086085768747064;0.74234212052307469 -0.50936414662859841 -0.61041216074251636 -0.79769341787053782 0.19122103170979837 0.70711833980525962 -1.4525562906953833 -1.8519634308619621 -1.8196552909609927 -1.2211879193962003];
  
  % ===== SIMULATION ========
  
  % Format Input Arguments
  isCellX = iscell(X);
  if ~isCellX, X = {X}; end;
  
  % Dimensions
  TS = size(X,2); % timesteps
  if ~isempty(X)
    Q = size(X{1},2); % samples/series
  else
    Q = 0;
  end
  
  % Allocate Outputs
  Y = cell(1,TS);
  
  % Time loop
  for ts=1:TS
  
    % Input 1
    temp = removeconstantrows_apply(X{1,ts},x1_step1_keep,x1_step1_remove);
    Xp1 = mapminmax_apply(temp,x1_step2_gain,x1_step2_xoffset,x1_step2_ymin);
    
    % Layer 1
    a1 = tansig_apply(repmat(b1,1,Q) + IW1_1*Xp1);
    
    % Layer 2
    a2 = softmax_apply(repmat(b2,1,Q) + LW2_1*a1);
    
    % Output 1
    Y{1,ts} = a2;
  end
  
  % Final Delay States
  Xf = cell(1,0);
  Af = cell(2,0);
  
  % Format Output Arguments
  if ~isCellX, Y = cell2mat(Y); end
end

% ===== MODULE FUNCTIONS ========

% Map Minimum and Maximum Input Processing Function
function y = mapminmax_apply(x,settings_gain,settings_xoffset,settings_ymin)
  y = bsxfun(@minus,x,settings_xoffset);
  y = bsxfun(@times,y,settings_gain);
  y = bsxfun(@plus,y,settings_ymin);
end

% Remove Constants Input Processing Function
function y = removeconstantrows_apply(x,settings_keep,settings_remove)
  if isempty(settings_remove)
    y = x;
  else
    y = x(settings_keep,:);
  end
end

% Competitive Soft Transfer Function
function a = softmax_apply(n)
  nmax = max(n,[],1);
  n = bsxfun(@minus,n,nmax);
  numer = exp(n);
  denom = sum(numer,1); 
  denom(denom == 0) = 1;
  a = bsxfun(@rdivide,numer,denom);
end

% Sigmoid Symmetric Transfer Function
function a = tansig_apply(n)
  a = 2 ./ (1 + exp(-2*n)) - 1;
end
